[[-1.84888678e-01 -8.63603121e-02  2.06435579e-02 -1.30663854e-01
   4.72425400e-02 -2.75496811e-01 -1.24391181e-01 -2.01346989e-01
  -4.29855887e-01 -7.18313480e-02 -3.51451566e-02  4.64476836e-09
  -9.35347290e-02  4.44398857e-02  1.64469683e-02  2.63238521e-01
  -3.23660531e-01]
 [ 1.73974147e-01 -7.46125170e-02 -5.14738155e-01 -1.92897879e-01
   2.41135006e-01 -3.25058450e-01  1.63912496e-02  6.45496495e-02
  -1.41860475e-01 -7.63571294e-02 -3.62284818e-01 -6.84984875e-04
  -1.02431338e-01  3.25441331e-01 -2.77494767e-01 -1.86247675e-01
   2.17003990e-01]
 [ 1.63701285e-01 -8.91546697e-02 -1.88276103e-01 -4.39789344e-02
   1.53366326e-01 -1.74629909e-01  1.52127043e-01 -3.23131800e-01
  -4.79453421e-01 -7.79760725e-02  1.05663182e-01 -5.48577029e-04
  -1.28241771e-01  2.61077894e-01 -3.47750430e-01  1.28252713e-01
  -4.12876140e-01]
 [-2.92979135e-01 -8.68945657e-02  2.36314755e-01 -1.28493971e-01
   1.32144415e-01  3.31211988e-01  4.25309801e-02 -1.66010970e-02
  -2.13411687e-01 -1.13806229e-01  1.95252959e-01 -5.15293764e-04
  -8.75570293e-02 -2.95630724e-01 -3.61689765e-02 -4.71945079e-01
   1.63424276e-02]
 [-3.68932797e-01 -9.79005666e-02 -2.16083080e-01 -4.26335980e-02
   1.11309987e-01 -2.71453816e-01  3.15890946e-01  1.06379980e-01
  -2.72122500e-01 -7.09195923e-02  1.45472925e-01 -1.86686066e-04
  -1.22778578e-01 -4.75099471e-01  1.63258172e-01 -4.10604727e-01
  -4.79383375e-01]
 [ 2.61101050e-01 -6.31848813e-02  2.63141501e-01 -8.13199643e-02
   7.09159173e-02 -3.43768369e-01 -2.58356040e-01 -5.87246139e-02
   3.41523468e-02 -8.80120060e-02 -2.55850293e-01 -5.86122425e-08
   5.55853151e-02  6.61042192e-02  9.10985894e-02 -4.09327784e-01
  -1.47442462e-02]
 [-3.03132733e-01  1.51304208e-01  7.50952734e-02  1.94887518e-01
   5.38246916e-01  4.16538254e-01  1.15744546e+00 -8.17344313e-02
  -1.27444471e-01 -5.39521810e-02 -2.07261281e-01  1.32398839e-10
   8.11535157e-03  9.58841748e-02  2.07768119e-02  2.52377627e-01
  -5.15946933e-01]
 [ 2.24625908e-01 -7.40968998e-02 -2.97700761e-01  1.06172962e-02
   3.87015427e-01 -3.69461490e-01  4.34334220e-01  2.05700818e-01
  -3.37979273e-01 -8.21151894e-02  2.71731860e-01 -2.73927234e-11
  -2.35069578e-01 -3.11275516e-01 -2.48381044e-01  4.43938704e-02
  -7.67298690e-02]
 [-1.78128101e-01 -7.97648790e-02  2.38024279e-02  7.37340171e-02
   3.28753911e-01 -3.20211788e-02  2.29157936e-01 -3.54392023e-01
  -2.12819166e-02 -8.49212879e-02 -1.07669584e-01  9.60921548e-11
   1.75417839e-01  7.87528739e-02 -1.22176900e-01  2.64113436e-01
   1.08748296e-01]
 [-3.18712557e-01 -7.44815203e-02  1.34306242e-01  8.02142025e-02
  -2.58153144e-01 -1.33815029e-01  9.91799689e-01  1.60099295e-01
  -4.40768363e-01 -9.00179081e-02  4.63964386e-02 -2.43392966e-04
  -4.76062274e-01 -1.00808182e-01 -4.86197352e-01 -2.00877304e-01
   7.34384831e-02]
 [-1.29791013e-01 -8.02750765e-02 -2.95033153e-01 -1.00125595e-01
   2.73197857e-01 -3.76330026e-02 -2.02941753e-01 -3.09224364e-02
   3.84149290e-01 -8.25645672e-02 -3.72961956e-01 -5.54968746e-03
   3.77143347e-02 -4.40163035e-02  1.43038176e-01  3.53814075e-01
  -1.29584462e-01]
 [ 2.98091898e-01 -1.21374689e-01  2.04221911e-01  5.51759442e-02
   2.78129453e-01 -1.87216599e-01 -1.45342544e-01 -4.01093153e-01
   3.25348320e-01 -7.87293709e-02  2.50999669e-01 -6.43931286e-03
  -5.41412174e-02 -4.16177266e-01 -4.05629921e-01 -1.15797507e-01
  -3.41437070e-01]
 [-7.37991053e-02 -7.80124738e-02 -1.51688946e-01  1.83302898e-01
  -1.25649572e-01  3.07858675e-01 -1.65367385e-01  1.21814660e-01
  -5.82599343e-03 -8.15086497e-02 -2.82350631e-01 -5.95793269e-03
  -3.87251822e-02 -2.58656721e-01  2.09840019e-01  7.96673439e-02
  -1.79121215e-01]
 [-2.48342322e-01 -7.60885760e-02  9.05457162e-02  5.99487451e-02
  -4.55220996e-01  3.19498559e-01 -4.38233471e-02 -1.17392987e-01
   1.58780805e-01 -7.73145402e-02  8.34168176e-02 -5.99112882e-03
   4.87131318e-02  1.77832803e-01 -1.93765289e-01  1.12770361e-01
   1.11414642e-01]
 [-1.85253679e-01 -8.68929578e-02 -1.31064054e-01 -6.05785006e-02
   7.32306479e-02  9.56617154e-03 -1.00548264e-01 -1.75206479e-02
   3.16148750e-01 -1.03289394e-01 -1.70518650e-03 -4.52193400e-03
  -2.15005962e-01 -4.78620781e-01  1.67013554e-01 -9.76246143e-02
  -4.70131183e-01]
 [-2.89648634e-01 -8.49025623e-02 -5.53342236e-02  1.78820306e-01
  -2.57929011e-02  3.60915330e-01  2.35780567e-01 -1.71274657e-02
   2.03026233e-01 -9.78560812e-02  5.94519636e-01  3.00332840e-10
   8.56408634e-03 -4.00417733e-01 -2.84298581e-01 -2.52441443e-01
  -2.61692229e-01]
 [ 3.79694553e-02 -7.12920442e-02  1.21095379e-01 -1.64927427e-01
  -2.57717972e-01 -2.00042541e-01 -1.73209094e-01 -2.29118150e-01
   1.33381408e-01 -8.18224872e-02  1.67035943e-01 -3.48308665e-10
  -8.11040343e-02 -8.99527012e-02  1.25005400e-01 -8.37059649e-02
   1.56624038e-01]
 [ 3.89323599e-02 -8.50241935e-02  3.41682140e-01  8.02419953e-02
   9.15233987e-01  1.35887357e-01  7.36176751e-01 -1.66987411e-01
   1.27344090e-01  9.73360655e-02 -2.84358026e-01 -6.05202523e-10
   1.40155967e-01 -3.88068001e-01  1.57949996e-02  3.29167399e-01
   2.09705261e-01]]
[[ 2.18793229e-02 -1.86368205e-01  2.29240125e-01  2.34513260e-01
   1.61658488e-02  1.97761653e-01  8.15044972e-02 -1.29916768e-01
  -4.08847299e-01  2.60228463e-01  3.46704100e-01  4.79198742e-01]
 [ 3.26295654e-02 -8.84559944e-02 -9.27845391e-02 -9.74926656e-02
   8.26946609e-02  7.99037828e-02 -8.49098878e-02 -8.88052396e-02
  -8.92566032e-02  7.76094030e-02 -6.49226806e-02 -9.34886427e-02]
 [ 1.44935317e-01 -3.30426006e-01 -6.49419005e-02  4.74436913e-02
   2.32151634e-01 -1.93737321e-01 -1.89615384e-01  2.02443230e-01
   2.65988178e-01 -1.42865964e-01  2.20378210e-01  3.84761379e-01]
 [-8.36196123e-02  6.48464005e-02 -3.28841331e-01  3.94781355e-01
  -1.18758589e-09 -4.23775482e-02  5.33777248e-02  6.41282056e-02
  -3.70807280e-07 -1.45743854e-10 -3.04074687e-02  4.22889392e-02]
 [ 3.60587540e-01 -1.90734283e-01 -3.35376482e-01 -3.13416190e-01
  -1.29677852e+00  2.96305034e-01 -3.80773095e-01 -4.19699237e-01
  -6.65860318e-01  1.69166466e-01 -1.04092475e-01  2.95431702e-01]
 [ 1.96604049e-01 -3.98508227e-02  5.56712724e-03  2.28354774e-01
  -1.72659304e-01  1.77919911e-01  4.74849500e-01 -4.59226824e-01
  -5.53996055e-01 -5.24448846e-02 -1.03697625e-02 -1.16004922e-01]
 [-1.93987487e+00 -1.42616871e-01 -2.37447803e-02 -3.83938994e-01
   5.16874157e-01 -1.49567203e+00 -3.84400886e-01  2.66188691e-01
   4.01627154e-01 -6.44371333e-01 -8.62645325e-02 -1.19582714e+00]
 [ 9.59310992e-02  3.69948275e-01  2.57159894e-01 -1.14404378e-01
  -8.06960628e-02 -1.07512935e-01  3.99667968e-01  4.06739490e-01
   7.89653856e-02  1.15989517e-01  1.22783265e-01 -2.97819244e-01]
 [ 1.96253477e-01  6.00877344e-01 -1.81136169e-01  1.28570156e-01
  -1.33471347e-01 -8.29061677e-02 -1.12652572e-01 -3.50253429e-01
   3.33251044e-01 -6.30686378e-02  2.55799355e-01  1.05776965e-01]
 [ 7.70225670e-02 -8.58361548e-02 -8.70946666e-02 -1.04877775e-01
   9.17897427e-02  8.65267401e-02 -8.61624242e-02 -9.67498882e-02
  -8.82248771e-02 -8.53953110e-02 -9.55171428e-02 -8.35230347e-02]
 [-3.34246836e-01 -4.66118161e-01  4.88360771e-01  2.46767727e-01
  -2.86426825e-01 -5.89713780e-01 -2.73329351e-01 -4.57374572e-02
  -2.25425133e-01 -3.94345448e-01  5.42588688e-02 -3.52506281e-02]
 [-1.60897554e-11 -1.77443029e-10 -9.02770757e-11 -2.77345571e-10
  -8.98061829e-12  1.48720464e-11  7.74601885e-11 -1.12802342e-10
  -2.56098324e-10  5.06708425e-11 -2.27328748e-10 -4.15491623e-12]
 [ 2.04652720e-02  3.57100344e-01 -2.33584771e-01 -1.50767043e-01
  -1.94050653e-01  4.36048217e-01  3.18244948e-01 -2.06207585e-01
   3.10294164e-01 -1.03833867e-01 -2.70362111e-01  3.64581330e-01]
 [-1.44327929e-01  2.39157409e-01  1.91580881e-01  2.54714398e-01
   6.47778815e-02  4.13368992e-01 -4.25008716e-01  2.55984848e-02
  -2.72340299e-01  5.61402633e-01  3.69863288e-01  2.40638109e-01]
 [ 3.27798826e-01  7.11097675e-02  5.07042403e-01 -5.75153652e-02
  -6.48968164e-02 -2.70049912e-01  3.95434641e-01 -2.16739594e-01
   2.44696354e-01  7.01495059e-03 -1.98444187e-01  4.87790019e-01]
 [-1.15153761e-02  1.28888719e-01 -4.13482018e-11 -3.72710406e-01
   3.77701442e-11 -8.83799688e-11 -5.00236893e-02  2.09323924e-10
   1.27868149e-01 -3.61807084e-11 -4.98098257e-01 -3.19762624e-01]
 [-4.89034936e-11  1.73411847e-01 -9.17735190e-12  2.88962213e-01
   3.56228517e-01 -2.30471093e-01  1.59188628e-01  3.97798891e-11
  -2.12137493e-01 -1.85461223e-10  2.43902196e-01 -1.75856346e-01]]
