[[ 5.71929986e+00 -2.76809758e-01  6.06204024e+00 -3.03567788e+00
   3.07643298e+00  1.72228244e+00  2.02701757e-01 -6.54155799e+00
   2.77290261e+00 -1.34847431e-01 -1.31312879e-01 -3.09346360e+00
   8.22502273e-01 -1.10680416e+00  2.19114931e-01]
 [-7.92745340e+00  2.09984334e-01  5.55984365e+00 -2.47426507e+00
   6.85134465e+00 -6.25907813e-01 -3.67959391e-01  5.47055652e+00
   1.02353914e+01 -1.53166199e-01 -3.26756845e-01 -8.00368558e-01
   2.74896264e-01 -6.68094502e+00 -2.06908094e-01]
 [ 4.06677393e+00 -2.87725305e-01  8.57449138e-02 -3.12184973e+00
   9.95737741e-01 -1.45182051e+00 -4.98431965e-02 -1.05369080e+00
  -9.84141055e-01 -2.98851833e-01 -3.43264917e-01  2.43951082e+00
   4.40486514e-01  6.83134294e-01 -1.00117763e-01]
 [ 3.47654309e+00 -2.18558275e-01  3.19511764e-01 -2.77391296e+00
   4.84661364e-01 -1.24915891e+00 -3.73147841e-01 -3.39008634e-01
   2.73429939e-01  1.28069359e-02 -4.65193587e-02  1.95185663e+00
   8.21868565e-01  1.72572180e-01 -3.82289369e-01]
 [ 3.51143201e+00 -9.71471186e-02  5.64913274e-01 -2.75481752e+00
  -2.98184009e-01 -1.00676465e+00  1.96954182e-01  8.84442026e-02
  -3.36832579e-01  3.19672805e-02  3.36597785e-01  2.08362462e+00
   5.31504970e-01  4.98401901e-01  2.71360989e-02]
 [-3.77879711e+00 -3.79178594e-01  5.76081141e+00 -2.85192460e+00
   2.53055387e+00 -1.54529985e+00  8.76145653e-02  6.19263889e+00
   9.17134627e+00  3.39065018e-01 -9.42406048e-03 -1.03069417e+00
   9.59291354e-01 -5.87357933e+00 -4.21508547e-01]
 [ 6.56982377e+00 -1.32993954e-01 -6.01362815e+00 -4.55651957e-01
   1.55079225e+00  2.50209406e-01 -1.96850518e-02 -8.74698702e+00
  -8.21945716e+00 -9.77517367e-02 -1.18109165e-01  3.69440848e+00
  -4.44610192e-01  6.37949514e+00  4.60610643e-01]
 [-1.27130340e+01  3.17134425e-01 -2.27671771e+00 -1.70709918e+00
   1.40436624e+00  2.61151977e-01  8.98252162e-02  6.23885085e+00
   7.81795641e+00  7.62489093e-02  1.01674389e-01 -6.35145389e-01
   3.66418415e-01  1.07160668e+00 -1.23134128e-01]
 [-2.40275972e+00 -3.26767909e-02  2.75592912e-02 -8.37092799e-01
  -4.58948180e-01  2.50158285e-01 -4.14317184e-01  5.83713513e-01
   3.14725292e+00  1.14034128e-01  3.05506154e-02 -9.94191488e-01
   5.78955888e-01  6.99204667e-01  5.06266230e-01]
 [ 9.17145290e+00 -8.31270533e-02 -1.09488889e+00 -5.51912707e-01
  -1.54992825e+01 -4.93694845e+00 -4.88745945e-04  3.77453338e+00
  -2.39573400e+00 -3.28120467e-01 -7.18912924e-02 -3.12313804e+00
   4.04201911e-01 -4.10876000e+00 -1.51356993e-01]
 [ 3.04302110e+00 -2.49202012e-01  7.21048898e+00 -1.22305000e+00
   7.41810810e+00  9.18484440e-01 -3.18320552e-02 -4.38463439e+00
  -8.29758020e+00  7.18570463e-02 -5.94712800e-03 -3.17722719e+00
  -4.71143747e-01  3.65227962e+00  2.80972685e-01]
 [ 5.66264682e-01  3.00861090e-01  7.13118102e+00  2.05360722e-01
  -1.55582743e+00  4.81341417e-01  3.59234404e-01  1.80079597e+00
  -1.11213745e+01 -6.48543146e-02 -2.15819117e-01 -3.96020546e+00
  -4.08291285e-01 -2.91303109e+00  1.85838898e-01]
 [ 6.45489519e-01  1.53367003e-01 -6.55501410e+00 -4.69571492e-01
   6.69472853e+00  1.63487899e-01 -3.49818322e-01  1.18256948e+01
   1.62057362e-02 -3.96723068e-01 -1.52709032e-01 -6.41463422e+00
  -5.91101859e-01  6.36785118e-01 -2.11138811e-01]
 [ 2.70878949e+00 -1.05645981e-01 -4.87459988e+00 -8.00996216e-01
   3.60521343e+00 -2.64537789e-01 -2.31001598e-01  1.04350611e+01
   1.46003283e+00  3.08777951e-01 -1.51902126e-01 -6.10293870e+00
   2.69956287e-01  8.68573811e-01  1.92640363e-01]
 [ 1.10758482e+01  3.56159315e-01  3.95168444e+00 -1.55291667e+00
  -1.70170904e+01 -2.92077637e+00 -2.65833035e-01  5.81225050e+00
  -8.49813510e+00 -1.93507255e-01  1.15250492e-01 -6.35019428e+00
   1.48243482e+00  6.50718450e-01  4.74631160e-02]
 [ 3.82106753e-01 -6.47043557e-02  1.15596695e-01  1.14087249e+00
  -7.57052127e+00 -5.53588019e-01 -1.39753619e-01  4.40438039e+00
  -3.05784657e+00  2.56790632e-01 -2.63968797e-01 -1.09995186e-01
   5.25591392e-02 -6.05246969e+00 -8.91322790e-02]
 [ 2.89093004e+00 -1.42507459e-01 -1.15242518e+01 -2.90116107e-01
   5.65037305e+00 -4.45512588e-01 -2.16882128e-01  8.34618218e+00
   8.48621000e+00  3.47940179e-01 -2.73606774e-01 -1.85748487e+00
   3.35643175e-01  2.92983645e+00  2.72261851e-01]
 [ 2.67185408e+00  5.84724252e-03  1.60642072e+00 -7.15984597e-01
  -3.10162834e+00 -1.84576453e-01  2.28005180e-01 -9.90405888e-01
   2.18746434e-01  1.62067265e-01  1.16227338e-03 -6.69412681e-01
   6.32916564e-01  1.69140448e-01 -2.37478645e-02]]
[[  8.29997224  -5.19315424  -1.57352282  -8.77837563   5.45027739
   -4.3986848    7.64012757]
 [  0.03460632   0.08435547  -0.27088278  -0.13290531   0.4810541
    0.44097032   0.04560399]
 [  7.47080646   3.34620388  -5.15954596  -5.54662515   5.04265744
    7.54155524 -12.70534924]
 [  0.258931    -0.10529101   0.53477169   0.16487917  -0.37083573
   -0.20208762  -0.6617905 ]
 [ -1.38201684  -1.68975578  -2.31236159   8.05770307 -10.57039227
    8.6366836   -0.44225557]
 [  0.17445172  -0.33401858  -3.08017431   3.46591129  -0.04169341
   -0.09544095  -0.48980814]
 [  0.01829499  -0.42419196  -0.38078379  -0.26359536   0.05066362
   -0.43914362   0.2566285 ]
 [  3.37730671  10.57976262   8.68355615  -0.79632687  -4.92260488
  -13.52828196  -3.36227297]
 [-14.82025896  -6.85879131  -0.35843368   7.46215814   7.46061214
    8.79237216  -1.27263304]
 [  0.18449402   0.02105345   0.407924     0.24586105  -0.46441798
    0.33454499  -0.44621334]
 [  0.16833602   0.08463688   0.03971577  -0.40716898   0.37819069
   -0.09230411  -0.12450395]
 [ -0.87710772   8.76986831  -6.75953941   0.12734155 -12.32659407
    4.40277576   8.44886428]
 [ -0.47028082   0.31479781  -0.74007475   0.29313549   1.29611521
   -1.23724871   0.47025878]
 [ -0.50158867   7.54873879  -3.30814443  -2.2096151   -3.01808104
   -0.83291156   2.99910925]
 [ -0.19827739   0.37916965  -0.41177904   0.21454651  -0.30110643
   -0.4626357    0.07050884]]
