[[-1.00599667e-10 -4.80893551e-01 -5.08505302e-01  2.74715193e-01
  -5.77983676e-01  5.64113121e-01  8.18004119e-02 -8.26604328e-01
  -2.19936711e-01  7.18532565e-01  3.55665776e-01  1.90725941e-03
  -3.36656923e-01  3.32417145e-01 -4.73396512e-01]
 [-1.88854504e-09  1.59184987e-02  1.99877219e-01  2.87998837e-01
  -1.95446211e-01 -2.44168646e-01 -2.02724082e-01 -3.82212230e-01
  -5.16297015e-01 -4.78100412e-01 -5.82429951e-02  1.30038043e-01
   2.60240019e-01 -2.79996641e-01 -6.68170166e-01]
 [-9.20600940e-05  3.93072800e-01  1.51540664e-01 -1.69689200e-01
   9.37245842e-02  5.94373052e-02  2.18066474e-01 -3.86334071e-01
   2.88701789e-01 -3.62647354e-01  2.88232751e-01 -1.38123898e-01
  -7.79277119e-02 -2.44972466e-01  1.16122905e-01]
 [-3.77801478e-02  1.43687141e-01 -5.09747646e-01  5.47002054e-02
   2.69191396e-01 -6.29456102e-02  1.53690271e-01  2.42583535e-01
  -4.24542706e-01 -2.34841407e-02 -1.97865631e-01  3.89260895e-01
  -5.58904373e-02 -1.98693707e-01  1.40033434e-01]
 [-3.66338065e-02 -2.80268844e-02 -1.69128634e-01  3.25785691e-01
  -3.09463247e-01  2.58811792e-01  2.34279151e-02 -6.85328999e-02
  -3.49081558e-01  1.73571344e-01  2.45489571e-02 -1.80565725e-01
  -2.55936178e-01 -4.23594982e-01 -2.39355995e-01]
 [-8.60082285e-04  5.07924087e-01  4.29132594e-02 -3.28077557e-01
  -2.83194037e-01 -2.72141263e-01  9.35350883e-02  9.00455718e-02
   2.27466750e-01 -6.94784835e-02 -2.61623875e-02 -3.43133215e-01
  -2.64110384e-01 -3.50597628e-01 -1.17272063e-01]
 [-1.74376387e-09 -8.96693276e-02 -2.80960385e-01  2.57543394e-01
  -2.70754404e-01 -7.67939146e-02 -4.27020255e-02  5.05333731e-01
  -2.44439084e-01 -3.65088154e-01  4.16994529e-01  5.37221290e-01
  -2.82961970e-01  2.40608455e-01  1.00531679e-01]
 [-2.48008982e-02 -1.92665329e-01 -1.42213487e-01 -2.30077882e-01
   1.17084453e-01 -3.59889538e-01 -1.82287702e-01  2.76011404e-01
  -1.62260483e-01  2.13404836e-01 -1.74772390e-01 -5.07310706e-01
   1.15698941e-01 -1.68922348e-01  3.07610361e-01]
 [-1.86974747e-12  4.41103527e-01 -4.23653018e-01 -1.04169961e-01
  -3.05000793e-02  2.53227058e-01 -9.28979321e-02  3.16781863e-01
  -1.59222560e-01 -1.11475554e-01 -7.28673002e-02  2.43141722e-01
  -1.93140751e-01 -9.71217047e-02 -2.99606981e-01]
 [-2.02067661e-14 -2.73801777e-01 -2.75381426e-01 -1.74719451e-01
   1.51702794e-01 -4.53544041e-01  5.88988003e-01 -1.65812561e-01
  -4.16809186e-01  3.30949001e-01  2.39524459e-01  4.52510715e-01
   1.65170411e-01  1.27125351e-01 -5.66897497e-01]
 [-2.33844724e-08 -1.91152656e-02 -1.60744386e-01  1.46292530e-01
   1.47141236e-01  2.66492110e-01 -3.55659292e-01 -3.23790547e-02
   2.48898560e-02  1.37611070e-01 -2.87596589e-01 -1.78948487e-01
  -4.69075641e-01 -4.76195152e-02  5.97987516e-01]
 [-8.39175179e-33 -1.97298190e-01  7.32359318e-02 -4.61846891e-03
   2.68278361e-01 -5.31988562e-02  2.72545123e-01 -3.30274967e-01
  -1.58947370e-01 -3.91815831e-01 -2.14928111e-01  1.69835642e-01
  -1.75056559e-01 -3.53661042e-02 -2.06939390e-01]
 [-1.58229672e-40 -3.52817896e-01  1.99787358e-01  1.35567330e-01
   1.97955842e-01  5.63484433e-02 -6.64131996e-02  3.05997541e-01
   3.26010628e-02  2.21552523e-01  3.07204833e-01 -3.96577019e-01
  -5.31556171e-01  2.22672456e-01  1.53635554e-02]
 [-2.03156033e-49 -7.57089656e-02 -1.67610341e-01 -2.52836310e-01
  -4.27455361e-01  3.32401141e-01 -3.25850791e-01 -2.89299904e-01
   1.91759460e-01  3.92231303e-01 -1.07347467e-01 -3.88998411e-01
  -1.56828643e-01  5.60504729e-01 -1.09834214e-02]
 [-3.03895258e-04 -3.83996805e-01 -1.48212374e-01 -2.78095528e-01
   3.82246338e-01  2.21436071e-01 -3.31016503e-01  1.47455614e-01
  -2.92947039e-02 -3.37185483e-01 -1.09757867e-01  1.81257323e-01
   2.59344976e-01 -5.61768184e-01  6.65371280e-02]
 [-1.23251462e-08 -3.44417881e-01 -2.15867331e-01 -4.54036093e-01
  -5.35633527e-03  2.99390496e-01  2.71263385e-01 -2.21705786e-01
   7.28170707e-02  1.80076966e-01 -3.15098071e-01 -1.36192082e-01
  -3.28900597e-01  6.63275432e-01  6.63923612e-01]
 [-7.45820349e-14 -5.35721110e-01 -9.69861002e-02  3.58773997e-01
  -3.82372705e-01 -1.39517350e-01 -1.53789247e-01 -2.22641597e-01
  -1.00155615e-01  2.03841773e-01  4.64159054e-01  1.63312818e-01
  -3.85341757e-01 -5.59056056e-02 -4.65337115e-01]
 [-1.16324363e-07 -6.79949934e-01 -3.61705764e-01  5.47013897e-01
  -4.07637213e-01 -5.50246402e-01 -3.53409863e-01 -4.97800921e-01
  -2.01801266e-01 -1.95732014e-01 -1.99475846e-01 -2.09501372e-01
   2.29588087e-01  1.24486482e-01  1.21643023e-01]]
[[ 4.48911353e-50  2.74935212e-50 -1.83612037e-51 -3.60267560e-50
  -9.58832920e-52  2.58575198e-50  1.99764622e-50  1.05659058e-47
  -3.49509161e-51  1.96206800e-49 -9.50660895e-49  6.97268265e-47
  -4.66445533e-49  3.94452296e-50  1.08353129e-36 -9.55075373e-47
  -2.42612984e-31  6.28932357e-07  5.00143185e-50  9.90003127e-51
  -8.13729030e-50 -2.20441817e-49 -1.01586745e-51 -3.15959825e-48]
 [ 3.25691652e-01 -1.02046464e+00 -5.33895084e-02  1.90139546e-01
  -2.18015577e-01  1.77122960e-01  3.62105018e-02  3.80641875e-01
  -3.98098968e-01  4.73149401e-01  1.28774700e-01 -1.88533129e-01
  -1.85672038e-01  2.49347601e-01 -1.31847519e-02 -3.21700809e-01
  -4.60815153e-01  1.60898096e-01 -9.38487169e-01 -3.47807997e-01
  -9.56360538e-01  5.53438123e-01  5.95336406e-01  3.69049438e-01]
 [ 1.75744400e-01 -8.92515997e-02  2.81663169e-02 -2.81104258e-01
  -2.77911060e-01  3.32053073e-02  3.46797823e-02 -1.94689604e-01
  -1.94508591e-01  1.71910314e-01 -5.05304872e-02  1.82941685e-01
  -8.38482288e-52 -2.12681079e-01 -8.59949693e-09 -1.32976951e-51
  -4.06948467e-51  1.04509879e-01 -1.16966120e-01  5.98850826e-02
  -2.63206668e-02 -1.77848143e-01  1.78247134e-01 -2.13781392e-38]
 [-6.38613637e-01 -1.19866066e+00 -1.81558478e+00 -5.24352174e-01
  -1.58992611e-01  3.75144069e-01  1.15573972e-01 -4.33030206e-01
   1.98496423e-02  2.98283048e-01  3.86123919e-01  5.54255402e-01
   1.04512080e-01  2.28045562e-01 -7.63317160e-01  7.13390993e-02
  -6.66279195e-01  2.14905057e-01 -1.44230331e+00  3.59920467e-02
  -1.01039846e+00 -4.81288790e-01 -7.68102012e-01 -8.46355332e-01]
 [-3.75969612e-01  3.59536105e-01 -3.04553132e-01 -1.96524792e-01
  -6.64736493e-01  2.07958648e-01 -3.87871824e-01  1.59624614e-01
   6.24881151e-02 -4.10786313e-01 -1.10003005e-01 -2.59160303e-01
  -9.69322774e-02 -1.35407380e-02 -1.80671239e-01 -3.24510374e-01
   4.85004387e-01  1.09223531e-01 -5.53754770e-03 -2.09116388e-01
   2.96934029e-01  2.10357740e-01 -1.91267883e-01  8.70387292e-02]
 [ 3.77653259e-01  2.56047862e-01  6.83187557e-02  4.03271792e-03
  -1.43019793e-01 -9.40524658e-02 -1.10384687e-02 -1.67806478e-01
  -3.70324608e-01 -1.14522348e-01  1.78555552e-01 -8.49194325e-02
   1.19679455e-01 -1.50378229e-01  1.14488825e-01 -9.35820135e-02
  -2.12744261e-01 -4.04607604e-02  2.57118613e-01  2.52362873e-01
   8.88507405e-02  1.06439694e-01 -3.33459924e-01  7.23841956e-02]
 [-2.87553924e-01  7.68585561e-03  6.88330487e-01 -6.64069532e-02
  -8.80867126e-02 -7.72883039e-02 -5.80072115e-01  4.64154530e-01
   4.24048810e-01  6.88474781e-02 -6.19605475e-01 -8.80285730e-01
  -5.60722995e-02  1.58396513e-01 -1.17701480e-01  2.15787917e-01
  -6.68083405e-01  2.28151143e-01  1.67630925e-01  1.43016748e-01
  -2.08865058e-01 -5.37982870e-01 -6.70628093e-01  1.82366044e-03]
 [-1.37038885e+00  2.10871566e-01 -6.04836146e-01 -2.10952953e-01
  -8.83516165e-01 -3.99156328e-01 -1.63605773e-01  1.10931073e-01
  -9.62993007e-01 -2.23775625e-01  9.39197213e-02 -2.53726730e-01
   3.19321833e-01 -1.26300187e-01  2.22913676e-01  7.67556917e-03
   3.97374278e-01  6.94586788e-01 -3.58460210e-01 -4.87649859e-01
   1.44181387e-01 -4.85118799e-01 -2.41202776e-01  5.35058592e-01]
 [ 3.14209084e-01 -3.12994416e-01  9.57696127e-02 -2.57731505e-01
   3.81566107e-01 -2.63890578e-01  3.66928948e-02  2.28110129e-01
   3.22289899e-53  1.17281902e-51  5.41408063e-02  6.66302146e-02
  -3.01242340e-01 -3.44204540e-01 -4.42293719e-02 -2.66117391e-51
   7.65084766e-02  1.58362006e-01  4.16364957e-01 -4.08779172e-02
   2.81712419e-01 -2.71448615e-01  2.08430553e-01 -1.47852320e-01]
 [-1.17065081e+00 -2.39033100e-01  9.60135569e-02  2.17846873e-01
   4.06140368e-01  7.18007035e-02  2.27549185e-01  8.21352985e-02
  -1.11341395e-01 -2.89816495e-01 -1.79118162e+00  9.42990481e-02
  -8.62187932e-01 -4.36866296e-01  4.51831474e-01  6.03483644e-01
   1.85896977e-01  1.56361954e-01  4.13036693e-02  1.75897456e-01
  -3.50517946e-01  1.65221210e-01  1.23293659e-02 -9.55063431e-01]
 [ 8.27449225e-02  1.50039069e-02  5.91994124e-02  2.52577385e-01
   4.46776227e-01  3.74776659e-01  2.32783414e-01  2.14635738e-01
   3.04995960e-01  1.81986713e-02  5.26379852e-02 -6.48693603e-02
   4.02455287e-01  3.29339328e-01 -4.99358291e-01 -1.03534705e+00
  -3.08547379e-01 -2.17057845e-01  5.87937709e-02 -2.59574329e-02
  -4.91713343e-01  6.67505248e-02  2.31250508e-01  5.86714684e-01]
 [-7.73186793e-01 -7.64120555e-01 -1.09486483e+00 -2.10255564e-01
  -3.37018185e-01 -6.15252591e-01  1.80967348e-01  6.22909636e-02
   5.02348367e-01  1.42676945e-01  3.02028284e-02 -7.29145538e-01
  -2.58896727e-02  3.92830450e-01 -4.72468471e-01 -7.07799744e-01
  -1.50153707e-01 -7.48977943e-01 -9.06650695e-01 -9.16429406e-01
  -8.58840010e-01 -2.34859841e-01  1.08714940e-01  4.94092755e-01]
 [ 1.79486205e-46  2.70237583e-51 -4.27466456e-38 -3.19095300e-01
  -3.65732423e-02 -2.25121585e-03 -3.36390226e-02 -1.93006355e-01
  -1.66017008e-01  2.71376190e-03  1.90779646e-01 -7.90039536e-16
   5.40741810e-02  2.83435484e-01 -2.86383163e-51 -2.91178601e-51
   3.58103196e-51  1.10332879e-42 -1.11718522e-01 -2.97529531e-02
  -2.02617810e-52 -8.19595872e-03 -2.66369958e-01  5.24929538e-04]
 [-4.37716741e-01 -7.95355815e-01  1.44664350e-01  4.95756965e-01
  -3.01712371e-01 -4.13381387e-01  4.80260466e-01 -4.43361625e-01
  -1.48509889e+00  4.56440056e-02 -2.12089485e-01  1.64076981e-01
  -3.03183634e-01 -2.95879726e-01 -7.50636067e-01 -1.16477648e-01
  -1.09300625e+00 -6.46951203e-01  1.11887165e-01  1.01795051e-01
  -2.29017783e-01 -3.10650589e-01  1.86565893e-01 -4.14916631e-01]
 [-6.27690126e-01 -9.53380824e-01 -4.43940567e-01 -5.13971059e-01
  -2.95776522e-01  2.39006750e-01 -7.87672750e-01 -4.14126847e-01
  -6.59699821e-01 -1.93884391e-01 -5.40680709e-02  8.36576895e-02
   4.24619550e-01 -7.34876500e-02  2.51049256e-01 -1.51318120e+00
   5.18453484e-01 -1.36427749e-01 -1.09634107e-01 -2.77902485e-01
   4.32631111e-01 -1.51166820e-01 -1.52425001e-01 -2.50687349e-02]]
