[[-5.01125440e-01 -3.44686946e-01 -1.05439035e-01  3.35342051e-02
  -2.77488210e-01 -1.06806008e-01 -9.81964820e-02  8.17147197e-02
  -3.44403074e-01 -9.59268287e-02  2.25333116e-01 -3.08793032e-01
  -3.55093545e-01 -3.58021513e-01  2.57622449e-01 -3.04899291e-01
  -4.60900099e-01]
 [-6.10886455e-02  3.21351516e-01 -1.53617395e-01  1.93727081e-01
  -4.01125603e-01 -8.33412279e-02 -1.24493723e-01 -1.20213664e-01
   1.89889783e-01 -6.52937252e-02 -2.33423419e-01 -5.62499998e-02
  -2.15419291e-01  1.11383524e-01  1.07130036e-01  3.32735431e-01
  -2.97774979e-02]
 [-2.35748813e-01 -2.06999149e-01 -6.47637527e-02  1.23076731e-01
   4.13851358e-02 -1.10097248e-01 -1.21478042e-01 -1.45045622e-01
   2.74207093e-02  3.85223845e-02 -4.03149138e-02 -1.11355836e-01
  -2.29330623e-01 -3.79422888e-01 -2.43632878e-01 -1.57416037e-01
  -4.60503383e-01]
 [-5.24468196e-01  2.99425826e-02 -7.78266726e-02  4.62508636e-02
   2.06120560e-01 -7.29395699e-02 -1.15855802e-01  4.26966561e-01
   1.08386178e-02 -7.24282141e-02 -6.59270269e-02 -2.28116009e-01
   4.04719714e-01  2.78890317e-01 -2.53710409e-01 -1.55481183e-01
  -2.47726218e-01]
 [ 7.18972447e-02  3.98993198e-01 -6.68227386e-02 -9.44169636e-02
   2.18575785e-01 -7.15593402e-02 -1.25102197e-01  2.50242244e-01
  -4.58100088e-01 -6.57175472e-02  2.61128053e-01  2.45307218e-01
   1.06148686e-01 -8.09604940e-03  1.04088467e-01  6.75855826e-02
   1.32294046e-01]
 [-3.43563562e-01  2.08376883e-01 -9.17441712e-02  8.82860999e-02
  -2.31038690e-01 -7.72871807e-02 -1.30908044e-01  1.10007852e-01
   1.61432756e-01 -6.46500018e-02 -1.70812446e-01 -2.75188318e-01
  -3.46936216e-01 -7.50263776e-02 -4.97502651e-01 -4.20876664e-01
  -1.29759146e-01]
 [-1.20850770e-01  1.04167498e-01 -4.68463621e-02  1.16703976e-01
  -1.80069381e-01 -7.07212286e-02 -1.05158567e-01 -1.61156465e-02
  -3.91167987e-01  4.91896750e-02  1.88137524e-01  8.83228327e-02
  -1.19550800e-01  8.09017475e-02  5.96493485e-01 -2.61386291e-01
   2.42004543e-01]
 [-2.38061450e-01 -2.42214255e-01 -6.19915525e-02 -1.11982461e-01
  -5.72970711e-01 -8.95922034e-02 -1.10900923e-01  2.80266896e-01
  -4.38554885e-01 -5.19969558e-02  1.59930820e-01  6.23726963e-02
  -2.83755612e-01  1.51967292e-02  3.72760720e-01 -9.01608402e-02
   2.09797692e-01]
 [ 1.35007821e-01  5.20897753e-03  1.34637228e-02 -6.11648677e-02
   1.58750300e-01 -7.64884418e-02 -1.13195373e-01 -4.00801254e-01
  -1.72243098e-01 -5.52744882e-02  3.99525230e-01 -1.50817345e-01
  -1.36419645e-01  2.07883094e-01  8.17369337e-01  3.83859187e-01
   2.45514273e-01]
 [-5.13876326e-01 -2.91913692e-01 -6.44972672e-02  4.25235986e-01
   1.46707566e-01 -7.78504352e-02 -1.20374828e-01  3.79445785e-02
  -2.44347321e-01 -2.12641739e-01 -1.05571125e-01 -4.05129866e-01
   4.01812410e-01 -3.21531981e-01  7.15459414e-01  2.50570649e-01
  -2.84428526e-01]
 [ 2.14560994e-01  1.50333033e-01 -6.38777238e-02 -5.23680667e-02
  -6.73365400e-02 -6.54460658e-02 -1.27647045e-01  1.02555341e-03
   4.78073423e-02 -2.14588656e-01 -5.26713094e-02  2.02532146e-01
  -1.64523170e-01  2.39629181e-01  3.59985196e-01 -1.00361913e-01
   1.21900857e-01]
 [-5.14084060e-01  2.83402704e-01 -8.18732036e-02 -9.18588035e-02
   1.99544350e-01 -8.37322262e-02 -6.08346700e-02 -7.73610689e-02
  -1.63442626e-02 -1.10125596e-01 -1.06141777e-01 -3.89693365e-01
  -9.86601586e-02 -4.20900095e-01 -2.45167682e-02 -4.22096214e-01
   3.21585159e-02]
 [ 1.68868446e-01 -6.32849664e-03 -8.79070872e-02 -2.84055984e-01
  -1.94022730e-01 -8.24087549e-02 -6.62665273e-02 -3.09362192e-01
   2.00802976e-01 -9.68997014e-02 -1.07956249e-01  2.71189091e-01
   2.77610800e-01 -6.67952168e-02  6.74541500e-02 -2.70300507e-01
  -4.28549463e-02]
 [ 7.27125248e-02 -2.60943444e-01 -3.11283409e-02  2.19680921e-01
  -2.03890082e-01 -1.06501852e-01 -1.17156815e-01 -1.82779950e-01
  -5.53284016e-02 -5.98632667e-02  4.52757019e-01 -2.28539765e-01
  -7.98542764e-02 -2.74973393e-01 -1.08761100e-01 -2.40836617e-01
  -2.18788061e-01]
 [-5.26301950e-01 -3.41413167e-01 -3.90503311e-02 -3.39001903e-01
  -4.71079538e-01 -7.11760824e-02 -1.27305508e-01 -1.61958995e-04
   5.51385776e-01 -6.21033701e-02 -5.29417772e-02  1.67901226e-01
   2.42766281e-01  2.01195781e-01  3.38028708e-02 -2.52956828e-01
  -4.81409151e-01]
 [ 2.13991262e-01  1.89052620e-01 -7.81462385e-02 -2.96119161e-01
   1.77749534e-01 -2.80158255e-02 -2.86453369e-02 -5.22255180e-01
  -6.83364523e-02 -1.04713594e-01  4.75082852e-01 -2.19276999e-01
   3.72684112e-01 -4.07171421e-01  1.86625123e-01  2.40788711e-01
  -3.78064045e-01]
 [-1.87268592e-01  5.60519744e-02 -8.77394461e-02  2.44383451e-01
   1.58974988e-01 -7.70613565e-02 -1.14083250e-01  1.48889101e-01
  -4.26003759e-01 -8.38261336e-02 -8.64864117e-02 -3.44728851e-01
   3.50729806e-01 -2.65612832e-01 -1.61509794e-01  2.28590821e-01
   1.03923689e-01]
 [-1.12077343e-01 -1.86229902e-01 -6.10176846e-02 -4.64127367e-01
  -3.26400790e-02 -7.32732330e-02 -5.53256796e-02  4.90569186e-02
  -3.33650759e-01 -1.81102695e-01  2.85690401e-01 -1.43050118e-01
   4.33296775e-01  3.09967789e-01  6.66957873e-02 -1.45713801e-01
   1.56555510e-01]]
[[-9.22871055e-09  2.96899267e-01 -3.84820018e-01  1.50712298e-01
  -1.01683053e-02 -5.77315337e-02 -2.48295075e-01  2.03688998e-15
  -9.84921351e-02  2.70751425e-01 -6.98430540e-03 -1.01713624e-01]
 [ 5.30109378e-02 -7.43672993e-02  3.14659359e-01  1.98432241e-01
  -1.39494482e-01  1.96393701e-01  3.18074812e-02 -6.69839084e-02
  -8.18931988e-02  3.00501212e-01  4.41396635e-01  3.45211847e-01]
 [-1.79317431e-01  1.08229267e-01 -7.28323981e-02 -7.47669712e-02
  -2.35124736e-02 -8.29728000e-02  8.57207074e-02 -1.42244588e-01
  -8.36918875e-02 -1.62870966e-01  7.69878316e-02 -6.50161961e-02]
 [ 6.83995923e-02 -5.02771746e-01 -3.90436918e-01 -3.14581490e-01
   1.06215439e-01  2.54134228e-01 -4.97138918e-01  3.75048401e-01
   5.20252493e-02 -9.94039154e-02 -3.98064776e-01 -6.05576877e-01]
 [ 1.72988273e-01 -2.69422252e-01  4.93347662e-02 -1.05503043e-01
   1.48855468e-01 -6.07350862e-02 -1.28564393e-01 -2.98879615e-01
   3.24435974e-02 -4.29580754e-01 -1.88666535e-01  1.77283466e-01]
 [ 8.78808778e-02 -8.63208717e-02 -7.79730969e-02 -8.13116688e-02
  -8.80223986e-02 -8.52380120e-02 -2.85723180e-02  1.53474627e-01
   9.47116138e-02 -8.51998105e-02  2.39252461e-02 -8.85232720e-02]
 [ 2.42945356e-16  1.08708673e-13  2.53467014e-11 -9.18277291e-02
   1.30784542e-15 -2.21330640e-06  1.07091908e-01  2.87357505e-02
  -1.03285613e-01 -2.30305994e-02 -4.68691006e-02  1.33805826e-01]
 [ 1.04230590e-01 -4.01240021e-01 -2.16655843e-01 -1.36225084e-01
   1.88163162e-01 -1.55791357e-01  1.30735329e-01  3.53971020e-01
   1.90168850e-02  3.81068593e-01  6.78888626e-02 -5.13154086e-01]
 [ 5.60882208e-01  4.19343325e-01 -3.72808633e-01  1.32770895e-01
   2.20697006e-01 -1.92910681e-01 -4.98028640e-01 -4.16212159e-02
  -7.51124839e-01  6.54071438e-03 -3.14297952e-01  4.71263333e-02]
 [-4.10331510e-17  1.19101608e-17  2.11257599e-17  1.84777340e-15
   1.12878227e-18  2.79199697e-16 -2.76963312e-17 -4.07804393e-02
  -6.56982795e-16  2.52035149e-02 -1.22036567e-17 -8.60449054e-16]
 [ 3.12798485e-01 -4.36620471e-02  5.23082277e-01  3.06013841e-01
  -1.98723682e-01  2.00320847e-01  1.82268369e-01 -2.55669284e-01
  -4.16998884e-01 -4.57416941e-01  7.46330251e-02  6.65766358e-02]
 [ 1.67961369e-01  2.84576858e-01 -1.17848865e-01  2.28157016e-01
   5.04220849e-02 -6.77329007e-02  3.75594050e-01 -1.74756087e-01
  -2.81908865e-01  6.27279766e-03  1.32818788e-01 -2.73659178e-01]
 [-4.06095529e-01  4.80255674e-02 -3.33671999e-01  1.51248749e-01
   2.64367694e-01 -3.50485191e-01  4.58571011e-01 -7.63830632e-01
   3.25600843e-01 -1.25442574e-02 -1.74003583e-03  3.51988501e-01]
 [ 2.98378454e-01 -1.96722852e-01  3.14433735e-01  3.38349641e-03
   2.89365646e-01 -4.77510917e-02  6.23971783e-02  1.43990222e-01
   7.05506846e-02 -3.10219043e-01  3.38438809e-01  1.99308292e-02]
 [-1.30619414e-01  1.40315907e-01 -5.11111188e-01  4.13496411e-02
  -5.00900320e-01 -1.31966741e-02 -2.55945062e-01 -4.69794348e-01
   3.31276365e-01 -5.13704515e-01  2.94451554e-01 -4.73107506e-01]
 [-3.91154472e-01  1.33145171e-06  1.64142372e-15  3.13230039e-01
   4.21975908e-02 -2.15604164e-01  2.20550976e-01 -1.01904366e-01
   9.64848389e-02 -5.12007106e-01  7.62241580e-05 -2.86868262e-07]
 [ 5.04170286e-04 -6.28502634e-07 -2.08499055e-01 -2.48260372e-01
   4.84078841e-02 -8.85999800e-03  8.70121276e-02  2.90038841e-15
  -2.48652973e-17  2.83225950e-01  1.48376601e-01 -2.46447358e-02]]
