[[-7.43936710e-01  1.39952345e+00 -1.44427327e+00 -1.62344411e-02
   2.45687308e+00]
 [-6.49016426e-01 -1.23258557e+00  5.59423982e-01  9.42001332e-01
   3.71890167e-02]
 [-1.08653962e+00 -5.98667132e-01  1.91451735e-01  1.61596605e+00
  -5.49200505e-01]
 [-5.48149856e-01 -1.17008508e+00 -1.47137483e+00  4.52085707e-01
  -1.61465630e+00]
 [-9.22435849e-01 -5.36756602e-01 -1.35014468e+00  8.86414162e-01
  -1.73378363e+00]
 [ 2.47151529e-04 -8.17548046e-01 -3.23246328e-01  7.96178454e-01
  -1.10954812e+00]
 [-7.60256300e-01  1.83371972e+00  3.89397552e-01  5.73068011e-01
   1.53557909e-02]
 [ 3.23232338e-01 -6.71326712e-01 -2.36764304e+00 -5.27526707e-01
  -7.31873482e-01]
 [-6.13602410e-01  6.65687395e-01  5.32600177e-01 -3.68376269e-01
  -7.17723522e-01]
 [ 1.98499702e+00 -3.62295312e-01  1.43390583e+00  2.43719321e+00
  -1.78539745e+00]
 [-8.82890024e-01  2.78140303e-01 -1.21550482e+00 -6.10822251e-01
  -7.58777113e-01]
 [-7.07185495e-01  5.43138178e-01 -1.48189126e+00 -5.29779013e-01
  -1.74518008e-01]
 [-8.81002743e-01  6.10628565e-01 -1.00926069e+00 -5.76919834e-01
  -3.98223873e-01]
 [-1.11791260e+00  1.30445722e+00 -1.38960194e+00 -8.16004783e-02
   2.70954868e-01]
 [-1.26916214e+00 -3.76680565e-01 -1.03824695e+00 -3.81432689e-01
  -1.72783066e+00]
 [ 2.24927467e+00  7.77537407e-01 -2.73267444e-01  7.66733630e-01
   8.97300534e-01]
 [-1.38803757e+00  1.61444192e+00  2.37492175e-01 -2.38019002e-02
   3.38228865e-01]
 [-1.28160702e+00  2.33862968e-01 -9.80295331e-01 -2.91424484e-01
   2.99165764e-01]]
[[-2.00345447 -2.67618204  2.96384791  3.15349402 -2.00919048 -2.7882304
  -3.41315402  2.19991635  2.92092671 -2.99797998  2.02869145 -1.09280031
  -2.43125558 -2.48184468  0.7559196  -3.32878705  3.57020857  0.72652432
   2.78861511  3.08789816]
 [-3.61009993  2.70770609  0.41239972  3.03421262  1.75665592  2.00664063
   1.52524897 -2.28814477 -3.12593526 -3.43367904 -2.77698277  2.87055306
   2.48068565  1.52958221 -3.26306414 -4.64066792 -2.39998916  2.89988728
   3.17565869  1.32558852]
 [-2.53763437  3.16128971 -2.81515286  3.03150074  3.64775256 -3.12984749
   2.37924485  2.10828331  1.96373873  1.80014497  2.85055232 -2.78047453
   2.88588836 -2.99658424 -3.25356601 -1.35160972 -1.90698528 -2.93416838
   2.73386759  3.5225224 ]
 [ 2.48177977 -2.69587639  2.39590219  2.55293146  2.9406452   2.28218146
  -3.69359815  1.79897808  2.80517552  1.72369884 -2.7728766   3.01380371
   2.00451865 -2.93459838 -2.58596693 -3.44336968 -2.33456798 -2.93642661
  -3.05669414 -2.22381202]
 [-2.1515826  -2.54366402  2.11165182  1.1863911  -3.46747922  2.82818262
   3.18126548 -3.6030459   2.6881396   2.10349109  1.592119   -3.35663782
   2.08389389 -2.18403666  2.23058161 -2.03171139 -3.34546377  2.50122971
   2.72502838 -3.01005636]]
