[[ 1.54209292e-01 -4.89242950e-02  2.72116150e-01 -8.38867496e-03
  -3.73022191e-23 -1.86112904e-01  1.60649029e-02 -4.53338252e-15
   2.82723461e-01 -6.77099349e-01 -2.79004003e-02 -5.04124819e-01
  -6.55528089e-02  2.92487093e-02  3.29764290e-01 -2.76599538e-01
  -1.05202500e-01]
 [-2.65705380e-01  2.56094988e-01  2.01258251e-01 -3.59815473e-08
  -9.71193937e-05 -1.64318363e-01  1.02849292e-01 -3.41711736e-03
  -3.06436640e-01  4.75575234e-01  2.49970836e-01 -1.04543142e-01
   1.47690173e-01 -4.22542409e-01 -3.64004969e-01 -5.11618249e-02
   9.93337754e-03]
 [-2.38393825e-01  3.11119325e-02  1.50714179e-01 -3.44577707e-09
  -2.08915020e-05  1.13675071e-01 -3.79758109e-01 -1.49434776e-03
  -3.39495597e-01  5.17863735e-02  3.05185544e-01 -5.17621284e-02
  -1.12637122e-01  1.96879641e-01  4.51847127e-02  1.21360793e-02
  -1.66234427e-01]
 [-2.97934664e-01 -7.47681105e-02  3.23327222e-01 -3.33987644e-02
  -1.34630768e-05  1.96297561e-01  2.36621595e-01 -8.33910828e-04
   3.73151332e-02  5.23551208e-02 -2.50477528e-01  1.07974158e-01
   6.63131549e-02 -3.83482374e-01  2.59478408e-01  1.77416190e-01
   2.16840879e-01]
 [-3.79812408e-01 -3.38090001e-01 -3.41385380e-01 -3.27024917e-02
  -2.28470994e-05  4.00129542e-01  2.58595485e-01 -7.15821594e-04
   2.08560187e-01  6.61878253e-02  6.85031769e-02  1.81452613e-01
   1.85155532e-01 -8.50432502e-02  6.92439639e-02  2.65409413e-01
  -1.71283130e-01]
 [-2.98977142e-01 -4.61187860e-01  1.15434192e-01 -1.99144956e-03
  -2.65127394e-08  1.71299639e-01 -2.40128591e-01 -1.07389560e-04
  -8.52814827e-02 -1.98194763e-01  4.42926772e-02 -1.58115345e-01
  -2.19112624e-01 -2.65212686e-01 -4.68712789e-03  1.14056523e-01
  -4.47653681e-01]
 [-2.97942109e-01  1.30486705e-01 -4.93621846e-01 -1.45610154e-05
   1.51705414e-43 -2.73727515e-01 -9.09272501e-02 -4.33906108e-12
   4.41699623e-01 -6.17633563e-02  4.70804554e-01  4.03721226e-01
  -4.79696554e-02 -3.60942354e-01  4.56021589e-03  2.94226107e-02
   2.81907425e-01]
 [-3.71298279e-01  1.00234075e-01  2.00248686e-01 -2.69273672e-02
   1.63873720e-39 -2.26901473e-01  2.13396531e-01 -5.01879192e-15
   3.65576907e-01  8.72563114e-03  2.47772243e-02  2.97301643e-01
  -2.51971802e-01 -2.85956272e-01 -1.93435487e-01  1.03391456e-01
  -2.76089337e-01]
 [ 1.23110261e-01 -2.61877982e-01 -7.50198488e-02 -9.65719064e-10
   1.23088567e-41 -2.25066293e-01  1.54711993e-01 -2.73101273e-13
  -1.26078901e-01 -3.89445112e-01  2.35698952e-01 -3.02067078e-01
  -9.91100186e-02  3.86884049e-02 -2.34734288e-01  1.14566196e-01
  -3.29438622e-01]
 [-7.52118973e-02  1.04368253e-01 -2.62744871e-01  2.36531578e-44
  -2.08296121e-04  1.39219230e-01  2.48963801e-01 -4.54551414e-03
   3.42063615e-01 -2.00016885e-01  6.58669517e-01  2.39212982e-02
   1.73392856e-02 -4.16143669e-01 -1.91195799e-01 -2.25522154e-01
  -4.26785793e-01]
 [-2.64324918e-01 -4.60096848e-02  4.62373499e-02 -4.35846537e-04
   8.47151180e-28  4.19564951e-01 -4.25405076e-02 -8.99440627e-05
  -2.99788305e-01  6.29784271e-02 -4.20818282e-01  1.76920312e-01
  -1.60862451e-01 -2.54719414e-01  2.57166485e-01 -7.96001405e-02
   2.93482828e-01]
 [ 2.50080817e-01  2.18232163e-01 -2.49543709e-01 -1.20270168e-04
   6.94043954e-28  1.90841200e-01 -3.82171856e-01 -1.50386689e-04
  -3.12031305e-01  1.05935254e-01 -6.06055342e-02 -2.91902711e-01
   2.83056988e-01  2.05356257e-01  1.02583074e-01 -9.52179462e-03
   7.84391025e-02]
 [-3.27773247e-01 -5.17998444e-01  7.93980500e-02 -2.96988477e-05
  -5.87222864e-25 -2.70184781e-01 -2.36277733e-01 -4.63926736e-05
  -3.13365451e-01 -1.19238180e-01  2.78731649e-01  2.37415929e-01
  -2.89860280e-01  3.44838613e-02  7.90909777e-03  3.46816429e-01
   1.61839991e-01]
 [ 8.41479436e-02  6.99814135e-02  6.72244072e-02 -3.72944642e-05
  -9.02576936e-15 -4.60286355e-01 -2.09155574e-01 -7.63827206e-05
  -2.19747846e-01 -1.06635462e-01 -1.93663939e-01  1.68087448e-01
  -6.04987738e-02 -3.03325184e-01  8.18439299e-02 -4.12597681e-01
  -1.87369562e-01]
 [ 2.67229163e-01  1.31315961e-01 -3.80367852e-02 -1.32476234e-05
  -6.17233556e-14 -9.26944902e-02 -1.42456676e-02 -6.87009983e-05
   2.66039982e-01  3.62465380e-01 -3.55137473e-01 -9.42976332e-02
   1.09972253e-02  2.71462267e-01  1.32635119e-01 -2.81510835e-01
   1.69781106e-01]
 [-3.85698153e-01 -4.44430479e-01  9.09571150e-02 -1.34501904e-10
  -1.74420373e-43 -1.73850506e-01 -1.64041211e-01 -7.87605038e-16
   2.81409628e-01 -5.02892895e-01 -2.49289006e-01  3.36862031e-01
   3.37079817e-01 -3.54551729e-01 -3.64538280e-01 -1.23479632e-01
   2.00884040e-01]
 [-2.03737329e-01 -1.66452530e-02 -1.28115011e-01 -1.01594214e-10
   3.52363784e-44 -2.05608449e-01 -3.23867401e-01 -9.74611105e-14
   2.98799467e-01 -2.25900304e-01  2.60583415e-01 -5.17437761e-03
   1.76414810e-01  1.53275374e-01  1.27259737e-01 -1.33736229e-01
   1.02835310e-01]
 [-2.16583267e-01  3.36839831e-02 -5.29226431e-01 -2.41490557e-08
  -1.87821465e-43 -4.78701374e-01 -5.35978352e-02 -4.67325409e-12
  -1.03482633e-01  5.18556583e-01 -7.76094364e-02 -2.38143989e-01
  -1.38453811e-01 -2.45181266e-01 -1.87425776e-01  4.57963517e-01
  -1.13805896e-01]]
[[-1.81905454e-45 -1.33928825e-01  2.45644237e-01 -3.96314680e-46
   2.08930980e-01  4.16169312e-02  8.91452942e-46  1.28361338e-01
  -4.38280793e-45 -1.76859362e-44 -1.54021528e-26 -1.02129518e-44
   1.29158700e-01 -1.55440452e-44 -4.37310296e-01 -3.08854883e-01
   8.62456600e-11 -2.06753889e-01 -4.40720454e-02 -1.67451330e-01
   5.23738305e-01  2.67111188e-01  3.77063390e-47 -3.85303794e-01]
 [-9.45755592e-02  3.03479750e-01 -3.94182995e-02  7.67705258e-02
  -3.57489575e-02 -2.34063101e-01 -2.67773725e-02  2.76961401e-01
   1.01407494e-01  1.34648351e-01 -2.33888940e-01  2.20357369e-01
   2.48587599e-01  3.34158493e-01  1.54173656e-01  1.94326885e-01
   1.64727820e-01 -1.96857836e-01  2.81953976e-01 -3.21078222e-01
  -2.39058582e-01  2.62647054e-01 -1.75756155e-01  4.68973039e-03]
 [ 1.34526092e-01  4.84559015e-02  3.52787436e-01 -2.03988737e-01
  -2.10673943e-02  1.80019202e-01 -1.18146471e-01  4.22455056e-02
  -1.56472703e-01  2.36566189e-01 -1.04006339e-01 -1.10458947e-01
  -2.97929174e-01 -2.09230165e-01  3.57504931e-02  2.53910465e-01
  -2.26448197e-01  8.67730611e-03 -2.69409640e-01  2.08497423e-01
   2.44109794e-01  4.38737728e-01  1.43013240e-01  1.88563554e-02]
 [-3.65443238e-46 -8.95341481e-45 -1.39979806e-44 -2.63683716e-45
   2.67645922e-46  6.05581041e-45  1.23344371e-44 -6.13469220e-46
   1.27782208e-47 -3.76353638e-45 -1.34226300e-46 -1.10940326e-44
  -5.13167293e-46  4.73216812e-46  2.65190936e-45  7.14964024e-05
  -7.45352761e-47 -7.51577009e-05 -1.96919064e-44 -5.88340810e-45
   9.18531391e-46 -1.58926619e-45 -2.02396019e-45  5.76123097e-45]
 [-6.60319587e-45 -5.26221649e-45  7.69122926e-45  2.78263777e-45
  -4.86313575e-46  1.36638323e-44 -2.06848056e-44 -4.98795781e-07
   3.62323781e-06 -1.67671627e-44 -2.40515217e-36 -1.60084626e-45
   8.47419975e-03  1.49352825e-44  1.69122927e-45 -2.98765303e-45
   1.94647616e-45  8.99138493e-45  8.19645238e-46  1.32331555e-45
  -8.56319217e-03  6.42540676e-45  3.62654498e-45  3.61235794e-45]
 [ 4.14043604e-01 -1.25889099e-01 -1.40569154e-01 -2.22836160e-01
  -8.94201935e-02 -2.22272939e-01  9.10881913e-02  2.92482446e-01
   2.88450591e-01  3.37935649e-01  3.76059034e-01  2.85083751e-01
   6.44878360e-02  3.79980792e-01  1.16965126e-01 -3.63595844e-02
   3.72421119e-01 -5.60873114e-02  1.42310972e-01  1.79356112e-02
  -2.17082822e-01  5.62969542e-02 -1.72363531e-01 -3.76400194e-01]
 [-3.90644556e-08 -2.79894644e-13 -2.83195154e-09 -1.65078815e-01
  -1.28575933e-01 -5.05740675e-09 -2.36824539e-01  2.39787789e-01
   4.45553537e-02 -1.65848744e-01 -7.42069521e-01  5.11004830e-02
  -1.59721009e-03 -5.48447196e-01 -3.69636748e-02  3.30707172e-01
  -3.97017380e-01  4.43349208e-01  1.22909668e-19 -3.99036281e-01
  -4.31579811e-12 -2.33435338e-05 -2.35480209e-05 -1.09387404e-12]
 [-8.42491604e-45 -9.79902419e-46 -9.62195469e-45  1.12522906e-44
  -1.38602587e-05  2.55697032e-45 -5.73781436e-07 -4.61958382e-34
   1.73234616e-03  3.28193527e-46 -2.43742834e-17 -1.00993211e-44
   2.45444418e-46  1.22558446e-44  1.56109282e-44  2.97421257e-45
  -2.47785345e-45 -2.60428173e-45  4.45815075e-46 -3.84337764e-45
   9.44394021e-46  1.93749102e-44  9.50898931e-45  1.38712555e-45]
 [-3.64413636e-01 -4.72187056e-14 -3.04290227e-14 -3.23969604e-01
  -1.25374420e-01 -9.72240462e-02 -3.31813154e-01 -2.45345173e-01
  -2.59768945e-03 -1.84863454e-06 -8.51204625e-02 -1.68241872e-01
  -1.34340089e-01  1.90806122e-01 -2.49069778e-01  2.15104209e-01
  -4.35790521e-01 -1.59539271e-02 -6.55654590e-02  2.57733263e-01
  -6.02383920e-02 -1.33691467e-01 -1.23144411e-13 -1.43670442e-12]
 [ 1.78743301e-01  4.21720360e-01 -2.89499980e-01 -3.09618679e-01
  -5.42917864e-01 -2.72257464e-01 -6.40118865e-01 -2.87288674e-01
   5.53988224e-03 -1.63922914e-01  3.80935491e-01  1.11349353e-01
  -5.48286079e-01 -3.35711026e-01 -2.21523357e-01 -6.51927717e-01
   1.41781391e-01  2.48160090e-01 -4.53997474e-01 -6.35976354e-01
   1.67578689e-01  5.16231645e-02  3.54581817e-02 -4.85443613e-01]
 [-3.22836095e-01 -3.73261347e-01  1.99554496e-01  2.39112075e-01
   5.48930089e-01  2.81927317e-01  4.13446097e-01  4.03753353e-01
   5.23424378e-01  6.47789730e-02  2.00650075e-01 -6.35430246e-01
  -6.01154979e-02  3.86046097e-02 -2.35826890e-01 -1.38386438e-01
  -2.18212476e-01 -3.51179523e-01 -2.69073035e-01 -2.65224720e-01
  -1.92538060e-01 -1.28048051e-01  3.59776890e-01  2.43153516e-01]
 [-7.45488686e-02 -2.41183346e-02  6.48202076e-02  4.18313495e-01
  -1.01563733e-01  1.01345703e-01  2.21029179e-01 -2.08391034e-01
   2.46424364e-03 -1.35011755e-01  1.56724318e-02 -2.15476606e-01
   3.33903382e-01  1.02792671e-01  1.81458477e-01  2.05162328e-01
   3.61825571e-01  2.62984892e-01 -1.55000645e-01 -4.25512370e-01
   2.54054267e-01  7.49322965e-02 -3.35333117e-01  6.95454684e-02]
 [-5.00986607e-02  3.58297012e-01  3.14715687e-01 -9.55593690e-03
   2.98919859e-01  5.15971190e-02 -6.95353680e-02 -3.12100360e-02
   2.26186486e-01  1.54991444e-01  5.77886490e-02  3.58332905e-01
  -2.81560530e-01  1.87614366e-01 -1.01954185e-01 -4.17050339e-02
  -1.63969372e-01  4.25351751e-02  5.47280122e-02 -4.16515713e-01
  -1.40260641e-01 -1.73383628e-01  3.00609824e-01 -1.75891458e-01]
 [-4.95173805e-02 -2.07510808e-01 -2.63409981e-02 -2.23816627e-46
   1.33330723e-01 -1.38456259e-01  6.11779970e-02  1.52646527e-01
  -9.51548936e-45  1.97909681e-45  1.33723106e-01  2.22361789e-01
  -2.74274845e-01  3.14073478e-46  1.54768365e-44 -7.88942744e-34
   3.92150859e-01 -3.21798901e-45 -2.23705228e-01  1.62661089e-01
   6.31484469e-02 -1.48828008e-02  1.19127982e-46 -2.33722842e-01]
 [ 1.38737606e-01  1.86836167e-01 -1.08040521e-01 -4.25976011e-01
  -4.02771266e-02  3.38170512e-02 -3.07654208e-02 -1.36469147e-01
  -1.61854719e-01  2.57298264e-02 -2.30186102e-02  1.62643487e-01
   7.60436787e-03 -1.32380898e-02  1.94096724e-01 -4.09282900e-02
  -1.90115767e-01 -7.76202950e-02  3.09893257e-01  3.62228276e-01
   2.06932996e-03  5.05300360e-02 -2.40862268e-01  2.00005853e-01]
 [-1.99411052e-01 -1.62763794e-01 -1.44243110e-01  2.74426629e-01
  -3.82425362e-01  5.94937646e-02 -2.75685844e-02  1.55816999e-01
  -3.28303005e-01  2.18581183e-01 -9.55853389e-02  3.51653485e-01
  -2.05998288e-01  1.88956885e-01  4.06716820e-02 -7.69138554e-02
   1.41198391e-01  2.32054967e-02 -1.55170663e-01  1.96137544e-01
  -1.61440072e-01  3.31360335e-02  2.62034822e-01 -4.81775210e-01]
 [ 1.70974802e-01  1.00482723e-01  2.56721359e-03 -1.06454207e-01
   3.42813132e-01  7.67100137e-02 -6.10452340e-02 -3.61847629e-02
  -1.11027625e-01 -1.21240037e-01  2.63009157e-01  2.69819902e-02
   4.47934800e-01  3.04642431e-01  1.90168872e-02 -4.42619408e-01
   1.40164417e-01 -1.81287018e-01  4.66652428e-01  2.38652912e-01
   5.78145936e-01  7.43758539e-02  1.00777533e-01  2.68540360e-01]]
