[[-1.16947112e-01  2.95925658e-01  2.50055287e-02 -5.27192700e-01
  -4.14847732e-01 -1.83213729e-01  1.03602969e-01 -1.01380405e-01
  -2.82096199e-01  4.22646459e-01 -6.67071004e-02 -1.35987256e-08
  -1.91644229e-01 -1.21060340e-01  3.56975902e-01  2.57678187e-01
   2.04045674e-01]
 [-2.15820109e-01  4.32838833e-01  2.94581323e-01  2.39180720e-01
  -1.91546128e-01  1.71795616e-01  3.34197981e-01 -6.51670960e-02
  -4.59506119e-02  1.78157448e-01 -4.22098357e-02 -3.65736194e-02
  -4.07978299e-01 -1.48558623e-01 -2.27241963e-01 -2.77273216e-01
  -1.58939429e-01]
 [-4.22191876e-01  5.16169071e-02 -2.45238012e-01 -7.15755978e-02
  -4.48202092e-01  2.45895255e-01 -2.29245286e-01 -6.92062739e-02
   1.85651413e-01  2.79570991e-01  1.80585750e-01 -2.16540754e-02
  -2.36415567e-01  1.07984465e-01 -2.46337900e-02  7.53965083e-02
  -2.90096346e-02]
 [-5.02646513e-01 -2.29870884e-01 -2.31391316e-01  2.27082603e-02
  -5.80569209e-01 -2.27367641e-01  2.75470799e-01  7.01530731e-02
  -5.21239726e-01  5.91470599e-02 -8.29736218e-02 -1.84128072e-02
   1.43441735e-02  3.56755580e-01 -3.66640139e-01 -3.32800405e-01
  -5.59781038e-02]
 [ 1.39102056e-01 -2.08796778e-01 -1.36290486e-01  5.23631921e-02
  -2.05182688e-01 -3.73495209e-01  5.63842457e-03 -8.13625312e-02
   2.09401065e-01  1.80459565e-01  2.74716042e-01 -1.74770102e-02
   2.36850567e-02 -2.74173316e-01  2.36529818e-01 -3.70798936e-01
   3.44684159e-01]
 [-4.04705570e-01 -5.11992833e-02  1.48140988e-01 -1.45463085e-02
  -5.55719362e-01 -3.51625695e-01 -2.99304254e-01 -1.30455386e-01
  -2.09553739e-01  9.80541406e-02 -2.09768638e-01 -1.68630918e-02
  -4.40222654e-01  3.24820715e-02 -4.15989181e-01 -1.15627744e-01
  -4.76408396e-01]
 [-5.76411083e-02 -2.18269321e-01 -8.01286145e-01  3.54606664e-01
  -2.91251389e-01  1.99565887e-01  1.25589712e-01 -4.72524488e-02
   2.39463666e-02  4.67094805e-01 -1.44522754e-01 -1.71262298e-04
   3.22146540e-01  3.23135155e-01 -1.35905560e-01  1.06906923e-01
   6.50725671e-01]
 [-2.96319115e-01  2.49398103e-02  3.34831727e-02 -3.62855123e-01
   1.07041881e-01 -2.93965665e-01 -1.39708838e-01 -7.35197523e-02
   2.51719685e-01  6.28174421e-01 -2.64109843e-01 -3.89770593e-07
  -7.91082926e-02 -3.51569457e-01 -1.65662626e-01 -4.67813981e-04
  -1.35643600e-01]
 [-4.14827415e-01 -3.61607756e-01  1.05733330e-02  1.08778419e-01
  -3.32528679e-01 -5.05765045e-02  1.46661680e-01 -6.20964069e-02
  -2.08459848e-01  6.08511149e-01 -2.81492835e-01 -2.68681162e-06
  -3.76268872e-02  1.03593616e-01  2.15467174e-01 -1.78978949e-01
  -2.39083515e-01]
 [ 6.69835002e-02  5.33220121e-01 -1.44141127e-01  3.64590081e-02
   4.40669282e-02 -1.59144470e-01 -2.70441921e-01 -6.53621388e-02
  -6.27544694e-02 -4.71352453e-01 -2.67526602e-02 -1.02473795e-06
  -1.00573236e-01  2.55058680e-01 -1.72519290e-01 -2.05715136e-01
   2.15392422e-01]
 [ 1.07994106e-02 -1.45174730e-01 -7.84294388e-02 -1.18905549e-01
  -5.16263738e-01 -4.76561633e-02 -1.52134327e-01 -1.28787076e-01
  -3.04659663e-01 -8.13417365e-02  8.44689000e-02 -1.97336855e-03
  -1.35315752e-01  1.36225785e-01 -3.31860600e-01 -5.72733523e-02
   1.90974607e-02]
 [-3.79705730e-01 -3.06990774e-01  3.82910493e-01  2.26350484e-01
   1.40640913e-01  1.92281508e-01  1.27061379e-01 -6.64225995e-02
  -3.21657512e-01 -1.69385368e-01  1.98455716e-01 -1.56404523e-02
  -3.40811733e-01 -8.43162200e-02  2.74499248e-01  1.51980971e-02
   3.62328717e-01]
 [ 6.75505604e-02 -3.37206145e-01 -3.22531357e-01 -1.74165113e-01
  -5.84913416e-02  2.07140502e-01  2.76829890e-01 -6.89872446e-02
   1.97521162e-02 -2.84324565e-01 -1.91302076e-01 -4.66084471e-03
   1.54250293e-01  2.50286818e-01 -4.17814760e-01  1.37176940e-01
  -9.00729474e-03]
 [ 2.16962214e-01  9.73134524e-02  1.01776425e-01  2.04413648e-01
   1.37525078e-01  2.73571086e-01 -3.09804632e-01 -1.92321091e-01
   2.00251483e-02 -3.13827788e-01 -5.40130885e-03 -6.26950928e-02
  -6.76857649e-02 -2.36167636e-01  9.97793695e-02  7.60172424e-02
   5.79082925e-02]
 [ 3.64636513e-03  6.37406395e-02  3.98041176e-01  1.43792589e-01
   1.23214746e-01  1.73124271e-01 -4.94398820e-01 -5.48110041e-02
  -5.44516136e-01 -1.36694071e-01  1.87899646e-01 -2.27129496e-03
   3.18524789e-01  2.24138633e-01  2.90577618e-01 -4.83162025e-01
   2.99730814e-01]
 [ 3.02513237e-03  2.34982721e-01  2.68059338e-01  5.85322035e-01
   1.98270214e-01  9.87886426e-02  3.11368466e-01 -2.15467209e-01
   1.33432587e-02 -3.97569277e-01 -2.67859601e-01 -7.38336467e-04
   1.78462979e-01  2.60393638e-01 -3.92569080e-01 -5.35540534e-01
   3.28407856e-02]
 [-4.98524280e-01 -2.67349089e-01  2.36001388e-01 -6.23714407e-02
  -3.18331852e-01  3.71273248e-01  2.27951847e-01 -6.34013055e-02
   2.00022025e-02 -4.56816744e-02 -2.61224518e-01 -7.20378392e-02
  -8.71892087e-02  6.64201982e-02  1.50008765e-01  1.65176955e-01
   7.49618387e-03]
 [-2.75667868e-01  3.18355320e-01 -9.64452774e-02  2.60013953e-01
   1.45797501e-01  1.02093697e-01  4.12026354e-02 -8.68917874e-02
  -3.47525861e-01  1.90747623e-02  9.35700311e-02 -2.02439118e-04
  -4.38163192e-01 -6.71655333e-02 -3.04727787e-01  2.00547817e-01
  -5.17477539e-01]]
[[ 2.29535629e-01  2.50068755e-01 -1.31340518e-08 -5.13595335e-02
  -3.94231004e-01 -4.88651180e-01 -4.95608538e-02 -1.71952952e-35
  -2.34754246e-01 -2.80679322e-01  6.14659017e-02 -1.28312941e-01]
 [-4.57383261e-01 -5.66549316e-02 -2.46080530e-01 -3.51700930e-01
  -3.71490125e-01  1.14127189e-01 -6.80871041e-02  4.15249192e-01
   3.99855362e-01 -4.25547290e-01 -5.60034333e-01 -2.91146416e-01]
 [ 4.22084137e-01  1.28825760e-01  1.01033242e-01  7.85672671e-02
   2.29144161e-01  5.45775659e-03  1.43802051e-01  4.73090014e-01
  -3.37243150e-01 -2.47888913e-01 -2.93670537e-01  2.01027955e-01]
 [ 1.01196988e-01 -3.14122683e-01  2.55583016e-01  3.27360788e-01
   5.48151607e-02  1.75425519e-02 -1.33708423e-01 -1.76015130e-01
  -2.16569506e-01  2.72905569e-01  3.08602676e-01  3.12294088e-01]
 [ 4.60100646e-02 -2.43111798e-01  1.56504387e-01  3.15973506e-02
   2.87010543e-01 -3.22207257e-01  1.02999221e-02 -3.13628645e-35
   5.51153471e-35  2.30510827e-01 -1.36849701e-01  1.63485430e-01]
 [-3.02518067e-01  3.02811603e-01 -2.86245030e-01 -4.36659642e-03
   1.16516680e-01  2.07245755e-01  4.76688725e-01 -1.87794959e-01
  -1.55642658e-01 -1.12858330e-01 -1.36849915e-01  2.33672405e-02]
 [-2.60724598e-01  2.79439432e-02  5.57861115e-01  5.47961698e-02
   4.29289006e-02  4.51519391e-01  1.03375834e-01 -2.16547197e-01
   4.81182210e-02  1.11048934e-01 -1.07507796e-01 -1.69975080e-01]
 [-7.44416158e-36  1.34666786e-36 -2.88156273e-35 -4.27577787e-35
  -5.27401364e-36 -4.46305773e-36  4.98860587e-36 -9.27234089e-02
  -4.85028056e-02 -1.36384611e-35  9.39853220e-38 -1.15962940e-35]
 [-4.14860789e-35 -1.06498492e-02  4.33156503e-01  3.11419696e-01
  -1.97108005e-01  2.27820426e-01  4.63222440e-02 -2.04018996e-01
   2.65259547e-01  2.95292641e-01  1.09636011e-01  7.55498461e-02]
 [-6.23035703e-01 -8.38202913e-01 -4.49012671e-01 -6.39270347e-01
  -1.31203227e-01  1.25787017e-01 -2.68269270e-01  1.81324967e-01
  -5.06223307e-01  3.44454709e-01  1.69994172e-01  1.56114848e-01]
 [ 1.13430431e-01  4.62134660e-01 -2.29340956e-01  3.38681893e-02
  -1.46824222e-01  7.54862285e-02  2.48170091e-01  1.80425726e-01
   3.77430868e-01  2.47259626e-01  1.80706452e-01  1.09057472e-01]
 [-1.20856023e-35 -2.18285880e-35  5.53893388e-37 -4.12047310e-35
   2.35814438e-35 -2.91245692e-09  2.82525857e-09  3.38918373e-35
  -3.69122822e-36  1.49879433e-35 -5.48586662e-35  1.26875119e-37]
 [ 1.65417617e-37  1.10912552e-02  1.59639586e-35  3.72233180e-01
   3.12448100e-35 -3.20260219e-01 -2.90649456e-01 -6.49391099e-36
   1.33233003e-35  3.10276473e-01  1.68516730e-01 -1.47677332e-35]
 [ 9.98800091e-02 -1.49531696e-01  3.25919573e-01 -8.98326302e-02
   3.56078449e-01 -1.69046486e-02 -3.27686463e-01  1.41862305e-01
   4.90277423e-02 -9.01481394e-02  1.17749573e-01  1.20734395e-01]
 [ 7.64584322e-37 -5.10427207e-02  3.21176174e-36 -2.33091186e-01
  -1.36295457e-36  6.01876040e-35 -2.22541157e-02  2.59276077e-35
  -3.00655595e-35  2.19166239e-01  2.93973936e-05  1.35107502e-35]
 [-1.57389370e-29 -1.77409634e-02 -4.47377593e-23  2.18164489e-01
  -1.99995279e-01  2.33490839e-01  9.79733981e-02 -4.04154953e-31
  -1.25824355e-21 -2.48966110e-01  2.72242156e-01 -2.56430781e-01]
 [ 3.70810503e-01  4.31702363e-01 -2.28447598e-01  1.79734448e-01
  -2.72273620e-01  3.08651866e-02 -6.34134935e-02 -3.81843710e-01
   4.37839823e-01 -1.76591836e-01  2.12965294e-01 -3.96761819e-01]]
