[[-1.44286413e-02  6.13508235e-02 -3.89636824e-01 -3.02385542e-01
  -1.96699897e-01 -1.65697635e-01 -3.07946385e-17 -4.73713507e-02
  -3.27365917e-01  1.26216944e+00 -1.61457960e-01  6.54457863e-02
  -1.02063307e-01  1.22013459e-01 -3.39421291e-01]
 [ 3.43875479e-06 -3.33568708e-02  2.54766451e-01 -1.04080670e-01
   4.35867189e-02 -4.78127310e-01 -9.26038524e-03 -7.39396853e-02
   3.97479337e-01 -4.43105118e-01  3.02391218e-01  1.43313418e-01
   2.01963234e-01  3.36092223e-02  3.95237073e-01]
 [ 5.93859208e-10  1.28982961e-02 -4.07230635e-02  1.62276994e-01
  -2.04641517e-02 -2.89201168e-01 -5.15967403e-03 -2.01747973e-01
  -3.94128111e-01 -7.31260739e-01  7.02887791e-02 -1.77073247e-01
  -2.84190048e-01  4.49127061e-01 -5.72831386e-02]
 [-1.07934053e-02 -4.82525842e-01 -2.14714472e-01 -5.90195413e-02
  -2.16443900e-01  3.90287100e-02 -3.66714139e-03  3.63120473e-01
  -1.00288531e-01 -5.57325329e-01  3.31205840e-01 -4.51506834e-01
  -1.81327255e-01 -1.30720429e-02  2.08241291e-01]
 [-4.61901149e-02 -5.65564411e-02 -5.05082429e-01 -1.69337425e-01
  -9.45047267e-02 -3.49007196e-01 -4.13589676e-03 -3.50051499e-01
  -4.00901110e-01  2.87486963e-02 -7.32643153e-02 -3.58479347e-02
  -5.21229505e-01 -8.42685340e-02 -4.79288042e-01]
 [-7.57193641e-03 -2.20782404e-01 -5.31081224e-02  1.18589524e-01
   1.52613566e-02 -1.21843713e-02 -3.73724998e-03  8.58470016e-02
  -5.86198894e-02  4.81278937e-01  3.86774252e-01  8.56132691e-03
  -3.19175229e-01  3.40552108e-01 -2.08068623e-01]
 [-1.45175037e-18  2.55152022e-02 -1.61267551e-01 -2.70612901e-01
  -1.93173476e-01  1.54921243e-01 -1.84404221e-07  2.92413407e-01
   4.77808779e-01  9.17674644e-02 -4.10488354e-01  9.42609802e-02
  -2.25452646e-01 -5.93744574e-01 -1.44568937e-01]
 [-1.02880924e-02  6.75625286e-02 -2.60147231e-01 -2.43705548e-01
   1.25038207e-01 -2.03853842e-01 -5.43513645e-13 -3.74820273e-01
  -6.85999033e-01  1.10895207e+00  2.71565537e-01  7.66073996e-02
   2.86483241e-01 -3.71375342e-01  1.15076512e-01]
 [-3.10891353e-11 -5.43466976e-01  1.55927556e-01 -6.94397100e-02
  -6.53377972e-02 -1.58715599e-01 -2.13739199e-12 -3.35642426e-01
   6.55017148e-01 -1.01046093e-01 -9.58475050e-02 -4.32411868e-01
  -3.74603844e-01 -3.69698154e-01  8.89949604e-01]
 [-3.79802522e-02  1.23443380e-01 -2.27015522e-01  3.33579729e-01
  -4.29340398e-01 -5.13997406e-02 -2.55736002e-14 -7.49309361e-02
   1.01625166e+00 -1.42067507e-02  1.23804028e+00 -1.90244506e-01
   3.95847405e-02 -8.49177466e-01 -1.24752333e-01]
 [-4.78158858e-02  4.08537592e-04 -1.91707285e-02  2.57288981e-03
   8.99574638e-02  2.23081962e-01 -6.00835249e-06 -1.29427100e-01
   5.81257230e-02 -3.51789117e-01 -2.71064194e-01  5.39319671e-02
  -1.46311359e-02  1.39921860e-01  7.54945781e-02]
 [-5.73966526e-02  1.05664485e-01 -3.52295688e-01 -1.88661295e-01
  -1.95021877e-01  2.09637440e-01 -4.37898974e-04 -2.97502617e-01
   1.34733658e-02 -2.74653869e-01 -4.38209998e-01 -6.63244966e-02
   8.02397969e-02 -2.87929911e-01  3.31200799e-01]
 [-5.66171045e-02  1.50042987e-01 -3.07540059e-01 -3.79505196e-01
  -3.91278194e-01 -3.05928961e-01 -3.57521649e-02 -1.16462210e-01
   1.00648444e-01 -1.37521196e-02 -3.52971031e-01  1.51817563e-01
   8.53789689e-02 -1.23511433e-01 -4.20764218e-02]
 [-5.37454199e-02 -7.54682413e-02 -4.42445305e-01 -1.00807783e-01
   1.73853743e-01 -4.38948303e-01 -3.82728537e-02 -3.86544256e-01
  -2.82738727e-02  5.91477295e-02 -3.54279361e-01 -2.24813748e-01
  -3.30328225e-01  2.70056674e-03 -9.22048261e-02]
 [-5.12470977e-02 -4.03589679e-01 -8.47957549e-02 -1.84215958e-01
   6.84776720e-02 -7.94977765e-02 -8.86337717e-05 -3.61681122e-01
   7.18565141e-02  7.09140267e-01 -2.80260505e-01  1.25868578e-01
   8.90439285e-02  6.57922835e-01 -4.06993777e-01]
 [ 1.95898351e-09 -2.58821245e-01 -2.17576202e-01 -1.48062839e-01
  -2.55213085e-01  2.22371875e-01 -3.27415755e-06 -1.31441143e-01
   1.42641358e-02  3.38773938e-01 -3.77844747e-02  1.55965022e-01
   2.14025412e-01 -8.06600903e-02  7.99200100e-01]
 [-6.20929277e-06  6.94254979e-02  2.41174398e-01  5.03638823e-01
   1.26797367e-01  1.87520760e-01 -2.91127922e-02 -2.55665703e-01
   2.49703894e-01  1.13562721e+00  4.02960684e-01 -6.52011710e-04
  -3.77299418e-01 -3.49381525e-01 -2.34417024e-01]
 [-7.38590935e-05 -2.65450646e-01 -1.26791521e-01 -7.14745051e-02
  -3.97211075e-01  1.38132400e-01 -7.66489024e-08 -2.33903898e-01
  -5.46897222e-02  2.15070938e-01  6.95304035e-02 -3.51808123e-01
  -3.98797236e-01  4.73255189e-01  9.88029493e-01]]
[[-2.98744470e-042  7.39960521e-057  2.36248656e-039 -4.70898618e-042
   1.86746713e-058 -2.59295564e-055  1.38719983e-054  4.66301639e-044
  -5.61733675e-069 -2.93489145e-052  1.86117426e-047  1.60977181e-054
   2.47800116e-059 -6.38160527e-033  5.73392724e-007  3.40655997e-004
  -8.09949560e-037 -1.08823464e-054 -8.55544665e-058 -9.85596642e-046
   8.47813647e-044 -2.51268832e-058 -1.43292575e-043  5.44609734e-041]
 [ 3.07651938e-001  4.16923082e-002  2.80558062e-001  1.82654857e-001
   2.09974076e-001 -1.03004140e-001  6.23692206e-002 -7.10542918e-002
   1.81454021e-001  2.49497078e-001  2.23433421e-001  2.12360513e-001
   3.04297283e-001  2.48738914e-002  2.63899619e-001  2.07491262e-001
  -1.16598994e-001  2.34027483e-001  2.05538756e-001 -1.17621765e-001
   1.91156110e-001  2.70315652e-001 -1.90184828e-001 -1.38765207e-002]
 [ 2.52587505e-133  3.89335433e-129 -2.41745266e-129 -1.78709928e-130
   7.53481272e-130  8.05325633e-002 -7.48238790e-130 -1.80316182e-130
   7.78995575e-130 -1.95892958e-129 -1.29435894e-130 -1.68026862e-129
   9.27650326e-130 -6.98211311e-130  8.44834944e-132  2.47778854e-001
   5.73511152e-130 -6.18365943e-130 -9.94244961e-002 -2.89298744e-130
   3.25295179e-129 -3.14754379e-129  1.67315903e-001 -3.88241281e-129]
 [ 1.69022061e-002 -3.32274130e-001 -3.20020521e-002 -1.80080188e-001
   3.33963705e-001  1.43856580e-001  3.18064415e-002  5.13581870e-001
   1.62587481e-001 -1.31545431e-001 -5.43728150e-002 -4.29972453e-001
  -5.15110705e-001  1.03989776e-001 -4.43210227e-001 -6.91921479e-002
   6.54679644e-002  7.09222994e-002 -1.62466400e-001 -1.32930116e-001
  -1.25155452e-001  5.72138675e-002  3.51404577e-001 -9.08464021e-002]
 [-5.55522598e-002  7.19634390e-003 -5.08178749e-003  1.70731502e-001
   1.97297686e-001  1.85946531e-001  6.70593852e-002  2.07058149e-001
  -1.13637693e-001 -2.27234158e-001 -4.09336335e-002  2.11046734e-001
   1.23485122e-001 -6.84768597e-002 -2.08898628e-001  2.69174950e-001
   2.11887137e-001 -2.27322686e-001 -1.20541126e-001  1.75993616e-001
  -2.14948812e-002  2.80927975e-001  4.58311167e-001 -1.58969322e-001]
 [ 3.54543717e-001  2.05770849e-001 -1.94505279e-129  3.64660710e-001
  -2.07848165e-001  6.59245411e-130  1.21146949e-001 -1.25329455e-129
   1.44512892e-001 -2.76582717e-131  2.24505564e-001  2.02762705e-001
   1.15619227e-002 -1.14168330e-001  2.48909207e-001 -1.74181902e-051
   2.01491740e-001 -6.72170969e-130  6.08426077e-002  2.04952529e-001
  -2.20011468e-001  1.81753475e-001  2.12955131e-130 -1.27765007e-001]
 [-2.29377265e-101  2.10396009e-108 -5.03968083e-100 -6.52904063e-101
   5.95600938e-110  4.03618790e-106  8.02624848e-010  4.21649978e-109
   2.39923964e-115 -1.82784948e-106  9.54205130e-104 -4.97381614e-107
   1.24604389e-108  1.51574726e-096  4.79285911e-111 -5.36614683e-115
   2.07989406e-099 -6.69478108e-107  1.63661429e-110 -7.77538453e-104
   2.91922598e-103  6.10286781e-108  1.70911028e-108 -5.80943810e-108]
 [ 5.07262871e-130  3.05956127e-129 -4.32136104e-129  3.99653328e-130
   6.73244710e-129  7.37858177e-130 -4.92881580e-130 -1.03318931e-129
   1.41642710e-129  4.60834701e-130 -9.17847688e-018 -4.63236906e-130
  -7.26436592e-130 -2.65202506e-001  4.21462695e-130  2.63721498e-129
   4.22425996e-130  5.21233605e-130  2.55233688e-001 -4.21987082e-129
  -5.72099174e-130 -2.82834821e-130  4.85360381e-131 -1.11658546e-129]
 [-6.36724560e-001  3.79167289e-001 -1.07508505e+000 -9.25391057e-002
  -3.15114383e-001 -1.02719487e+000 -1.50655480e-001 -8.85596209e-001
  -1.17689390e-001 -2.71909408e+000 -2.86814775e-001 -1.85604437e+000
   4.09297723e-001 -3.87993764e+000 -1.52144288e+000 -1.70602185e+000
  -2.49833637e+000 -2.85531017e+000  4.51892828e-002 -5.27507951e-001
   5.75446862e-001  1.64699586e-001 -3.76154697e-001  3.47339760e-001]
 [-2.71855199e-001 -9.48435888e-003 -1.95134149e-001 -1.54761473e-001
   2.04817131e-001  1.37097462e-001  5.56942128e-001 -7.96908241e-001
  -1.67378091e-001 -7.38657358e-001 -3.35466040e-001 -5.68636404e-002
  -3.43807884e-001 -1.21491172e+000  7.48552768e-001  5.18351810e-001
   6.54190041e-001 -2.13050525e-001  4.07189857e-001  5.83211971e-001
  -9.37084386e-001  1.33523603e-001  9.85339240e-002 -1.98016928e-001]
 [-1.10199857e+000 -1.64669467e+000 -4.84447603e-002 -1.89026450e+000
   2.90628838e-001  2.35763810e-001 -1.57974064e+000  5.91245227e-001
   3.93812411e-001  2.27546106e-001  8.98870665e-002 -3.26677227e-001
  -2.77814481e+000 -1.49823733e-001 -2.92907980e+000 -3.46645492e-002
  -2.67340405e+000  7.37843295e-001 -2.77139855e-001 -1.57280427e+000
  -1.62336774e+000 -1.08565802e+000  1.98136979e-001 -1.72654836e+000]
 [ 3.43389690e-001  3.93887312e-001  6.18892270e-002  4.47050222e-001
  -3.14628515e-002 -1.42312094e-001  2.05173499e-001 -5.52240402e-002
   1.36438610e-001 -2.25903222e-001  2.82670281e-002  2.38185756e-001
   6.75032265e-002 -4.94901821e-002 -9.03392152e-002 -4.29003638e-001
  -1.26200157e-001 -7.14013418e-002 -1.56877307e-002  3.18038293e-001
   2.83402503e-001 -7.18118385e-002  2.81476251e-002 -2.81491981e-002]
 [-2.90339006e-001 -2.28495058e-001 -2.73841038e-001  3.49469569e-001
  -4.05534039e-001 -5.14098980e-130  2.61987053e-002  1.58214641e-131
   4.91670762e-002  7.61668703e-130  5.95571694e-002 -1.25258679e-001
   1.74263811e-001  1.87615009e-129 -2.55932557e-002 -2.33819284e-001
  -1.27925385e-001  3.04797708e-001  1.77408013e-001  9.63949917e-002
   1.33481395e-001 -1.28701092e-001 -1.12143411e-001  2.65337391e-131]
 [ 7.16684559e-001  2.81734701e-001 -1.44133884e-001 -3.37627698e-001
  -7.65139470e-002  4.83760056e-001 -1.70882044e+000 -8.51933680e-002
  -4.04517795e-001  6.39551784e-001  5.82098490e-001  6.60929991e-001
  -4.87443607e-001 -1.91169734e-001 -1.52381701e+000 -2.69389425e-002
  -1.64070315e+000 -1.56592336e+000  3.89142234e-001  5.97724415e-001
  -2.11471841e-001  2.65017156e-001  2.46090326e-001 -2.08080565e-001]
 [-2.34940395e+000 -3.30960861e-001  7.08398354e-001  6.85977791e-001
  -1.29875734e-001 -6.89356016e-001 -5.75305005e-001 -6.80562375e-001
  -3.24931754e-001 -2.89757125e+000  1.67557886e-001  1.88156757e-001
  -1.63742617e-001 -2.71402696e+000 -1.03193099e-001 -4.30964987e-001
  -1.17036125e-001 -1.09164386e-001  8.56757649e-002 -3.11726533e-001
  -8.12819971e-001  4.60158136e-001  4.00722851e-001  3.12335417e-001]]
