[[-0.30525069  0.12864137 -0.08109833 -0.12071994 -0.1382509   0.08129588
  -0.28094199  0.51663251  0.00347979  0.05498134 -0.61177305 -0.31203449
   0.13967423  0.35993581 -0.05657217  0.19250298  0.21523849]
 [-0.16692248 -0.49950397 -0.0611627  -0.28960372 -0.29736538  0.08012605
   0.02027002 -0.19106324 -0.03908809  0.06354424 -0.32671873  0.19934321
   0.14550459  0.17921323 -0.36616462 -0.40951798 -0.32940727]
 [ 0.0724556   0.18249831 -0.07376545 -0.30929417  0.03023622  0.07435427
   0.26214843 -0.3392774   0.15587031  0.14986312  0.23341518 -0.37710961
   0.14905771  0.14521601 -0.46486547 -0.22376158 -0.04726416]
 [-0.16033221 -0.13406466 -0.07030671  0.05508241  0.37760624  0.06769831
   0.07612256  0.05591873 -0.02360948 -0.08128678 -0.08603639 -0.32776166
   0.15891542  0.08700267  0.13924041  0.26233406 -0.0932699 ]
 [ 0.35744851 -0.1696048  -0.07467862  0.3030806   0.07893492  0.08156944
  -0.22502384 -0.02767764 -0.16704642 -0.13952781 -0.21823115  0.13853514
   0.15567867 -0.11916496 -0.09949003  0.04077146 -0.20484136]
 [-0.30927539  0.06193197 -0.0718835   0.17204983 -0.14584808  0.0038678
  -0.05384118  0.10639623 -0.16077022  0.0741881  -0.21090147 -0.38412028
   0.13131476  0.23170535 -0.3549274  -0.32128355  0.25037764]
 [-0.41844849  0.18829079 -0.03086482  0.33385306 -0.0034037   0.32034631
  -0.0599294  -0.1017972   0.08986995  0.09698011  0.38579304  0.32940262
  -0.32947732  0.09451576  0.09644899 -0.26948289 -0.48582947]
 [ 0.32393253  0.1815148  -0.01824516  0.03840537 -0.0745857   0.04657214
   0.07550223  0.44199922 -0.04973788 -0.36193169 -0.45964033 -0.28629427
  -0.1813782  -0.13689895 -0.05053946  0.03439441  0.22046414]
 [-0.25000744 -0.31584107 -0.01887906 -0.402996    0.09369582  0.1543158
  -0.39388956  0.12480318 -0.02961079  0.0892454  -0.36963647 -0.2627884
  -0.10182062 -0.28528332 -0.35016353 -0.20394216 -0.25761427]
 [-0.20537764  0.05785707 -0.07276553  0.17448662 -0.34041119 -0.66193523
   0.37273513  0.20019394  0.06126086 -0.4709347   0.02414881  0.13632874
   0.16928766 -0.57854708 -0.12693588 -0.05705735  0.29394568]
 [ 0.22192437 -0.17361904 -0.09854215 -0.16471698  0.4237842  -0.06316414
   0.07545588 -0.01927765 -0.18860574 -0.2776383  -0.26629647  0.22859294
  -0.05016914 -0.08946074 -0.1983229  -0.03827612  0.09634546]
 [-0.3053251   0.25687323 -0.09758683 -0.04456196 -0.07870078  0.06335293
   0.13270025 -0.40925407 -0.05952432  0.06111693  0.31701521  0.41942104
  -0.11013443 -0.1948453   0.29481261 -0.28791521 -0.4684095 ]
 [-0.34907797 -0.01247289 -0.09782078  0.06778322  0.02162621  0.09026876
  -0.31522742  0.13051966  0.14395791  0.11984681  0.18830835 -0.02617048
   0.03870278 -0.3222886   0.00124868 -0.17458704 -0.48533095]
 [-0.16560453  0.02959911 -0.09661383  0.10437914  0.0970098   0.07502673
  -0.22639457  0.00549732 -0.18672011 -0.1553695   0.12045809 -0.03137354
   0.02752222 -0.33761336  0.18570431  0.24290476  0.08284073]
 [ 0.07001152  0.29818796 -0.09819425 -0.16148771 -0.34182852 -0.34433413
   0.24429578 -0.07786487 -0.0964331  -0.28210172  0.07375003 -0.12071951
   0.07238913  0.28497124  0.00265357 -0.12995392 -0.08049723]
 [ 0.00694765  0.16207626 -0.07304946  0.38292559 -0.24600393 -0.26966806
   0.06724885 -0.14241028  0.03811064 -0.19656709 -0.14510151  0.17765574
  -0.17811905  0.12293598 -0.04773    -0.1055661  -0.20973134]
 [ 0.24075607  0.24016564 -0.02320795 -0.44893493 -0.34640015  0.208036
   0.17581093 -0.14925914 -0.15854141 -0.26064178  0.28188176  0.22978885
   0.13069249  0.01456214  0.20057781 -0.17277466 -0.17466308]
 [-0.27679198  0.24882166 -0.02980615  0.03822488  0.40154927  0.2566986
  -0.0883884   0.18066257 -0.01908765 -0.50684866 -0.43030345  0.04006529
   0.17906521 -0.25091613  0.05942435 -0.26056544  0.19322909]]
[[ 1.43425201e-01  1.35949003e-07 -1.22087517e-07 -2.81388201e-08
   3.76984690e-08 -2.43662567e-07 -3.69772376e-01 -3.42343539e-07
   2.91117250e-09  1.66401579e-07  1.57811801e-01 -3.95296287e-01
  -6.41595957e-07 -4.92161686e-01 -5.46824277e-02 -2.11502722e-01
   4.24050700e-01 -4.04439585e-06 -2.23262639e-02  1.47777210e-07]
 [ 2.82237804e-01  3.11098525e-02  8.20447202e-02 -1.88053173e-01
   1.69769458e-01  2.75601994e-01  1.95069436e-01  1.82726513e-01
   1.36240391e-01 -1.11569306e-01 -2.84266528e-02 -9.43711602e-02
   1.42022916e-01 -1.05895699e-01 -1.87861130e-01  6.99639505e-02
  -2.32257951e-01  9.25963450e-02  2.06943500e-01 -4.20836611e-02]
 [-9.87777226e-07 -6.93326717e-02 -7.91283856e-08  1.86220416e-07
  -1.03618919e-06 -1.11883524e-07 -2.52613389e-08  9.47242071e-07
   1.00508810e-09  2.26610787e-07 -1.70009903e-05 -1.54586399e-07
  -1.13117735e-06  4.37137671e-08  1.20735103e-07 -1.37628448e-07
   1.08312938e-07  7.47385865e-02  3.51128406e-07 -1.04305186e-02]
 [ 2.79617466e-02 -1.35449230e-01  5.42424309e-01  4.98019809e-01
  -2.20502825e-01 -3.09251290e-01  9.80637417e-02 -5.60508909e-02
  -1.17403625e-01 -2.22950990e-01 -3.69649875e-01  1.33126070e-01
   2.44937600e-01  1.18713309e-01  1.95412855e-01  2.74590809e-01
   3.30287520e-01  2.59505590e-02  7.45611408e-02  1.13100680e-01]
 [-4.59812149e-01  3.37970537e-01 -3.56109626e-01 -5.51945001e-01
  -5.47734518e-01 -7.69681787e-01 -3.10934822e-01 -4.70361591e-01
  -6.16121885e-01 -3.69669938e-01  3.70022592e-01  3.69080912e-01
   3.21053880e-01  3.85904431e-01  1.52406602e-01  4.36275496e-01
   2.99316460e-01  1.48419192e-01 -3.07706102e-01 -3.48506310e-01]
 [-3.57256950e-01 -4.55808710e-01  6.71788963e-02 -1.52546852e-01
   1.35447593e-03  2.28700570e-01 -2.20049751e-03 -3.17777376e-01
  -1.84005428e-01  1.82115856e-01  8.71334946e-02 -5.35282319e-02
   9.40685269e-02 -1.95547443e-01 -3.00436920e-01 -2.29720237e-01
  -1.50230525e-01 -2.50129705e-01  1.92112363e-02  3.12945174e-02]
 [ 2.00741377e-01 -4.87963221e-01  1.56050932e-01 -5.98094742e-01
   6.54634931e-02  1.57373353e-01 -4.48747153e-01  3.03465800e-01
   5.11867821e-01  1.87349230e-01  2.17269250e-01  2.37686590e-01
  -4.47443860e-02 -2.86550235e-01 -2.65630184e-01 -1.04492994e-01
  -2.15694101e-01 -1.75060876e-01 -4.40627239e-01  2.80346853e-02]
 [-4.88096881e-01 -1.12521728e-01 -5.92989319e-01 -3.28203395e-01
  -2.37891311e-01 -5.29992842e-01  2.32980717e-01 -3.03246689e-01
  -1.86262542e-01 -2.83195319e-01 -3.06911788e-01 -5.61814402e-02
  -4.59126638e-01  3.44272880e-01  4.47047131e-01 -2.59694506e-01
  -1.22501756e-01  1.33717046e-01  4.26669986e-01 -5.92954858e-02]
 [-5.70051517e-08  1.26886039e-03  8.47373296e-02 -1.03981794e-01
  -8.11971059e-08  1.03637792e-06 -2.76609531e-07  2.54660618e-02
  -2.60077289e-02 -8.28125963e-02 -6.88709548e-02 -8.89179195e-02
   2.52568710e-01 -8.38637933e-02  4.77714394e-07 -1.38813864e-01
  -2.88663924e-01 -1.45431422e-02 -4.34867361e-03  2.16231451e-07]
 [ 2.20820244e-01  4.23526991e-02  3.17177955e-01  4.90983694e-02
   1.02295381e-01  3.27336156e-01 -4.43605353e-02 -1.81391692e-01
  -4.15686960e-02 -1.51251178e-01 -1.19770780e-01  6.79836166e-02
  -1.75212692e-01  4.73162973e-02  2.80462742e-07 -3.63360597e-01
   4.05358499e-06  1.65162276e-02 -5.59830451e-02  1.74491031e-01]
 [-1.98379819e-02  1.34002671e-01 -1.72328795e-01  3.17109411e-01
  -4.61466256e-01 -3.83739332e-01  3.68229334e-01 -4.51345504e-01
   1.45018924e-01 -2.15974099e-02  2.00978801e-03  2.90753294e-01
  -2.28600782e-01 -2.53196801e-02  5.95180414e-07 -3.83609005e-01
  -2.64240679e-01 -3.04415241e-01 -5.58315306e-01  1.96518643e-01]
 [-2.94520872e-01  2.19824818e-01  2.55375374e-01  4.44334726e-01
   1.91890367e-01 -1.52656494e-01 -1.39939954e-01 -8.49231966e-02
  -7.13174802e-02 -2.11556097e-02  1.54822478e-01  2.03815419e-01
  -1.99257431e-01  2.34455950e-01 -2.03293691e-01 -1.54971643e-01
  -1.87238309e-01  3.58484739e-01 -1.90394794e-02  5.40637819e-01]
 [ 1.45357373e-01 -7.84795003e-03 -7.58694113e-02 -1.66834205e-01
   8.74161202e-02 -2.63522472e-02 -7.72668558e-02  2.61102226e-02
   8.89005334e-02 -8.99117955e-02 -2.86943024e-02 -2.60734808e-01
  -2.87258900e-01 -2.69753663e-01 -2.82358282e-01 -2.50699964e-01
  -2.70787550e-01 -5.73890614e-02 -2.00450652e-02 -1.76078820e-01]
 [-4.85803765e-01 -7.14103504e-01 -1.71809970e-01 -2.52087198e-01
  -2.81640052e-01 -2.16508107e-01 -5.94663272e-01  3.46913942e-01
  -1.89375224e-01  4.09800921e-01  1.97525857e-01  1.30318426e-02
   1.32758990e-01 -3.32309082e-01 -2.39067489e-01 -4.08731302e-01
   1.11163898e-01  9.11997196e-02  8.13523932e-02 -2.78419085e-01]
 [-6.43504799e-02  2.04441535e-01 -2.18236287e-01 -1.17927200e-01
  -2.56141471e-01  2.69966288e-01  7.28736197e-02 -3.28137789e-01
   1.46867354e-01 -5.05787136e-03 -9.57524810e-02 -6.41267273e-02
   3.31363086e-01  1.36737554e-01 -2.53927521e-01  5.78360393e-02
  -6.61446826e-04  7.07678317e-02 -2.17138080e-01 -6.53496509e-02]
 [-6.20306709e-02 -3.34074768e-01 -1.32025594e-01 -6.64055304e-02
   4.06479826e-02  2.12540913e-01 -1.03995244e-01  2.18995753e-01
  -1.00776827e-01 -1.05904910e-01  2.06327832e-01  1.88499166e-01
  -1.80266014e-01  2.29617657e-01  3.04025121e-01 -1.69983971e-01
   1.01657158e-01 -2.51895688e-01 -1.27304250e-01 -6.63758512e-02]
 [ 3.00028531e-01  1.95355072e-02 -1.37270421e-01 -4.88383192e-08
  -3.91502352e-03  1.87327179e-01 -2.24904868e-01  3.24291331e-01
  -2.22361323e-01 -1.23997262e-01 -2.33717034e-01 -2.11113669e-01
  -2.09478240e-01 -2.19656071e-01 -3.56757507e-02  3.62842541e-01
   4.26295239e-01  1.57268057e-01 -1.48405826e-01  3.69339845e-02]]
