[[ 2.49030526e-01  1.71031935e-01 -2.14676955e-01  1.10251476e-01
   2.39408779e-01 -1.16074142e-01 -1.69345291e-01  1.36639548e+00
  -4.59800253e-01 -4.22063568e-01 -4.25876395e-01 -2.47122985e-01
   7.30225610e-02  2.19222837e-01 -4.66177814e-05 -4.63175595e-01
  -7.13018690e-02]
 [-5.33707894e-04 -1.88122265e-01 -5.06338435e-01  3.14823463e-01
  -2.03970506e-01 -2.88560939e-01  2.37869803e-01 -4.80082936e-01
   4.93100795e-02 -3.99390270e-01  2.36668960e-01  6.55858476e-02
   1.55411024e-01 -7.71353364e-02 -2.83079960e-03  3.28890789e-01
   1.33157163e-02]
 [ 1.67604461e-01 -1.79769570e-01  6.40309514e-02  3.74726536e-01
  -3.79805974e-01 -1.52484600e-01 -2.40850392e-01 -4.36905387e-02
  -7.83193255e-02  2.59006989e-01  5.29471635e-02 -1.70205957e-01
  -5.43816548e-01  3.61543251e-01 -3.84110468e-03 -3.74975848e-01
  -1.15798090e-01]
 [-3.73013259e-01  2.97176295e-01 -3.95899423e-01 -2.96248261e-01
  -1.85810911e-01  2.64753040e-01  2.22294396e-01  6.23468967e-02
  -7.72892727e-02 -4.28588515e-01 -9.41509984e-02 -1.96399928e-01
  -1.87633079e-01 -1.34856598e-02 -2.08271005e-03 -1.90540057e-01
   1.28600824e-01]
 [ 2.29707881e-01 -4.45560109e-01  1.50454714e-01 -3.74004911e-01
   2.53512838e-01  8.86496053e-02  1.32587164e-01 -4.78015858e-02
   1.26719251e-01  2.74788462e-01  2.25142557e-01  2.33710988e-01
  -6.48210390e-02 -1.03121042e-01 -2.27381746e-03  4.90828487e-02
  -2.36640880e-01]
 [ 2.24530522e-01 -4.08329485e-01  2.04997812e-01  3.74779338e-01
   1.95202619e-01 -1.96925757e-01 -1.24877843e-02  1.87735661e-01
   1.34291333e-01  5.60519272e-02 -1.67378047e-02  5.22457248e-01
  -3.24191418e-01  1.90473125e-01  3.86770650e-04  3.93115044e-02
   2.07566760e-01]
 [-1.77718989e-01 -2.06891455e-01 -2.67374262e-01 -8.54344067e-02
  -9.32039757e-02 -4.81099080e-01  3.29816699e-01  3.97025461e-01
  -2.06754942e-01 -1.34926518e-01  6.21546969e-01 -2.67880802e-01
  -9.47815532e-02  4.16799705e-02 -2.29521787e-38 -8.11746312e-02
  -4.25076134e-01]
 [-4.99152081e-03  1.65168744e-01 -7.20192030e-02 -1.80768583e-02
  -4.39087349e-01 -9.65750538e-02 -1.82794610e-01  1.04519188e-01
  -4.62681727e-01  1.64798187e-01 -4.00104328e-03 -2.38620075e-01
   1.25019753e-01 -8.25975978e-02 -1.90149778e-32 -2.68174945e-01
  -3.65332391e-01]
 [-2.07002898e-01 -1.83763918e-01 -2.74449810e-01 -5.83863426e-01
   3.24973232e-01 -2.50271988e-01 -2.61505364e-01  4.10615708e-02
  -8.32334940e-02 -7.78464876e-02 -5.88994269e-02  1.20438045e-01
   7.81202331e-02 -1.29044002e-01  3.15657502e-28 -3.25015207e-01
  -2.35710483e-01]
 [-1.50222166e-01 -3.69425097e-01 -3.51650890e-01  5.78727167e-03
  -1.42147573e-01  6.57074614e-02  2.45104265e-01 -8.75852793e-01
  -1.52267225e-01  9.93236641e-02 -4.27840014e-01  5.73452366e-01
   2.89630323e-01 -5.64951953e-01 -1.56405142e-32  2.99092400e-01
   5.66003682e-01]
 [-2.04891107e-01 -1.62796002e-01  2.13821878e-01  9.59279806e-02
  -1.51742600e-01  2.90629358e-01 -1.87847192e-01  6.74651164e-02
  -3.54451902e-01  9.65963308e-02 -3.05674090e-01 -2.46380485e-01
  -2.93564075e-01  5.00153146e-02 -8.32064506e-11  5.70210321e-02
   1.66260835e-01]
 [-2.08716418e-01 -4.32390024e-01  3.16363280e-01  2.49466029e-01
  -1.14832463e-01  3.53873532e-02  1.81303768e-01  9.25106640e-02
  -2.06306432e-01 -3.04706968e-01  7.66327736e-02  7.16548974e-02
   2.28720522e-01  2.13401520e-01 -1.59612047e-19  3.30833981e-01
  -2.69853136e-01]
 [-1.98205613e-01 -2.88141416e-01  9.86776650e-03 -2.16154411e-01
   2.17125282e-01  1.14034675e-01 -2.38962969e-01  1.15074563e-03
  -1.17177728e-01 -2.68108896e-01  2.28935391e-01 -2.13048094e-01
   3.34054056e-01 -1.19884707e-02 -2.27039774e-32 -3.07153881e-01
  -1.64560949e-01]
 [-3.84030456e-01  1.19239886e-01 -1.89807891e-01 -7.14953035e-02
  -6.73012951e-02 -1.14141946e-01  1.10553540e-01  1.89494886e-02
  -1.57840923e-01 -1.98036686e-01  1.25097010e-01 -2.51292438e-01
   3.44460372e-01  1.43781708e-01 -2.23647630e-24 -4.48164162e-01
   1.61994452e-02]
 [-1.01656071e-01 -2.85003195e-01  1.23484132e-01 -2.72849705e-01
   1.08112051e-01 -2.57564544e-01 -4.61857433e-01 -4.34215662e-02
   2.67002732e-01 -1.02548244e-01  2.07206921e-01  1.66930537e-01
  -4.26851130e-01 -2.20369485e-01 -1.12714082e-10 -3.92898239e-01
   4.37301085e-01]
 [ 5.97465792e-02 -1.76013716e-03 -1.39148735e-01  2.97227131e-01
   2.50991234e-01  2.87327960e-01  4.11436757e-01 -5.03463870e-01
   3.14738968e-01 -4.66059268e-01  1.01134894e-02 -8.99971691e-02
   3.06603345e-01 -3.46719968e-01 -2.08751448e-24  8.30348372e-02
   1.69502706e-01]
 [-2.62633391e-01 -4.00997440e-01  2.54657900e-01 -5.59524203e-01
  -3.57166217e-01 -4.89555206e-01  6.00770938e-01 -7.38543842e-01
  -3.13542737e-01  7.40842757e-02 -1.79781955e-01 -2.56753455e-01
   2.86543784e-01 -3.36172480e-03 -1.29206675e-27  4.63383747e-02
   6.89575364e-02]
 [-3.37571417e-01 -4.14631638e-01 -4.57508603e-01 -4.28962836e-01
  -4.21502430e-01 -2.61178017e-01 -3.95248298e-01  2.35388392e-01
   2.15925126e-01  2.82415791e-01  3.87325150e-02 -2.01242610e-01
  -3.41616706e-01  2.54268288e-01 -1.07343731e-19 -4.78568786e-01
  -5.85624925e-01]]
[[ 9.40171260e-02 -2.11668737e-01 -5.06246752e-01 -2.33762107e-01
   1.10994945e-01 -4.61205763e-01 -2.42817815e-02  2.49426418e-02
   5.98453462e-02  3.22982508e-01  4.68735367e-02 -3.14029536e-01
  -6.82630858e-02  3.46148943e-02 -8.41801678e-02 -1.91560261e-01
   3.49335063e-01 -5.25803710e-01  1.21281383e-01 -4.83805039e-01]
 [-1.12458203e-47  2.44816376e-01  1.78431455e-47  2.89512523e-48
  -9.15572862e-48 -3.84605120e-48 -5.65643654e-02 -2.18735729e-48
  -1.41661461e-48  6.21784521e-49 -2.56447220e-45 -1.71727156e-48
  -1.96018138e-48 -8.52531462e-02 -1.74350246e-01 -9.81725737e-48
   9.85116422e-48  1.88052030e-47  2.77091238e-01 -2.36737913e-47]
 [-1.00040374e-01  2.53394235e-01  9.29542871e-02 -1.13822988e-01
  -1.66390890e-01 -4.24277079e-03  2.01601833e-01 -1.16146166e-01
   1.70071723e-01  2.96193082e-01  9.75256284e-02  4.94451245e-02
   1.22487941e-01  1.32466084e-01  1.31169730e-01  1.73710833e-02
   2.03733078e-02  3.57440377e-01  1.63103583e-01  3.41175982e-01]
 [ 1.04877275e-01 -4.12752022e-01  1.67247237e-01  1.65239330e-01
  -1.55564171e-01 -4.67798225e-01 -8.28896457e-01  3.28191802e-01
  -2.82633889e-01  1.11205332e-01  2.65942657e-04 -6.65313264e-01
  -5.36239959e-01  5.65509725e-02  1.95190731e-01 -5.44030660e-01
   6.77629437e-02  1.70447875e-01 -2.42718628e-01 -2.12737807e-01]
 [ 1.44902476e-01  1.74984413e-01  1.09467814e-01  8.43418729e-02
  -2.45388225e-02  2.05153013e-01 -1.54614665e-01 -3.25275737e-01
  -4.31065564e-02  1.33447686e-01 -2.31513329e-01  2.81630672e-01
  -8.53486545e-02 -3.26542945e-01 -2.71816248e-01  1.90996529e-01
   1.15754379e-01  1.25147129e-01  1.35934072e-01 -4.35722736e-02]
 [ 5.53564658e-02 -7.21820710e-02  2.24992146e-01  9.01435887e-03
   1.55295452e-01  9.87808103e-02 -2.47039422e-01 -1.23750925e-01
   9.71348246e-02  7.50917356e-02 -1.49387503e-01 -3.24745455e-02
  -6.55277239e-01  3.20300098e-01 -2.31149019e-02  3.66188108e-01
   3.20740509e-01  7.52112901e-02  7.10172008e-02  2.38300972e-01]
 [-6.77326252e-01 -2.58950290e-01  4.64445829e-01  7.43575792e-03
   2.80951019e-01  1.19984683e-01  6.13520271e-02 -1.13508687e-01
   1.30743385e-01  1.14457792e-01 -2.81886052e-01 -4.66272158e-01
   2.77160620e-01 -2.11651422e-01  8.36806903e-02 -1.05696724e+00
   4.88708936e-01 -6.58805780e-01 -3.49479504e-02 -1.61805445e-01]
 [-9.11047330e-02 -5.21438895e-02 -2.09978498e-01 -1.93076519e-01
  -2.73553542e-01 -2.41817676e-01 -3.61724483e-01 -4.09904306e-01
  -3.21770714e-01  3.88782069e-02 -4.80689728e-01  6.71740548e-02
   1.64036915e-01  2.30527001e-01  3.32583245e-01 -1.65685408e-01
  -3.22721485e-02  1.01044995e-01  2.34355250e-01 -5.03782719e-01]
 [ 2.02694601e-01  2.07458505e-01  3.61925952e-01  1.67317900e-01
  -1.11827954e-01  1.90202811e-01 -5.07672260e-01  1.53727949e-01
   4.22068321e-01 -3.22938889e-02  3.05148896e-01  1.56148461e-01
   1.86713570e-01  4.21330337e-02  2.67626452e-01 -1.85760182e-01
  -2.55541847e-01  3.94437986e-01  2.85124275e-01 -2.60724508e-01]
 [-2.63879187e-02 -4.13497909e-01 -7.13884533e-02  1.47154148e-01
   1.38350075e-47  3.95176634e-48  2.69987441e-01 -2.65740069e-01
  -1.38521445e-02  1.37235190e-01 -1.19519699e-01 -7.88938685e-03
   2.86943559e-01 -1.17284829e-01  2.57728447e-02 -2.24567325e-48
   7.09308298e-02 -1.11682633e-01  2.59620612e-01 -3.35874110e-02]
 [ 6.80333110e-02  2.10499800e-01 -9.04464610e-02  1.07240238e-01
   2.85849420e-02  6.66883226e-02 -1.84238408e-02  1.21645591e-01
  -2.43743105e-01 -5.20059871e-02  2.77293163e-01  2.30540682e-01
   1.75153243e-01 -7.27264172e-02 -1.83169932e-01  1.75151807e-01
   4.56783357e-02 -1.48761524e-01 -5.49628346e-02 -6.52304444e-03]
 [ 8.12426470e-02 -6.53309933e-02 -2.25537750e-01  1.03207641e-01
  -6.27904936e-01 -5.33764108e-01 -4.70966573e-01  4.67553523e-01
   2.33895386e-01  2.79213567e-02 -7.14027199e-01  1.16483412e-01
  -1.68145701e-01 -2.94144589e-01 -1.14114000e-01 -1.50801815e-01
  -3.89757833e-01 -5.58925126e-01 -1.21206611e-01 -3.71368372e-01]
 [ 6.21216179e-02 -2.99417964e-01  7.76474794e-02  4.15338949e-01
   4.93405692e-02  1.43427233e-01  3.66566447e-01  8.10002655e-02
   6.49264229e-02 -6.65865530e-01  6.99396512e-02 -1.82468334e-02
  -6.61448853e-01  3.13763695e-01  3.53637828e-01 -1.95476618e-01
  -2.37528706e-01  2.14792332e-01 -7.21225299e-02  3.14034206e-01]
 [ 2.92405405e-01  1.59201087e-01 -2.22914333e-01 -3.02088951e-01
  -4.25337683e-02  3.04541213e-01  2.37176403e-01 -1.02052919e-01
   1.29433089e-01  2.78255668e-01  3.94669135e-01  1.79401867e-01
  -5.22601155e-02 -1.35855318e-01 -4.66833749e-01  6.05155760e-02
  -6.07004386e-01  2.27925488e-01  3.27137909e-01 -1.76101244e-01]
 [ 4.04861696e-48 -3.81535822e-49  7.31361978e-48  8.50499575e-49
   5.32994535e-48 -1.31743682e-48 -3.29582105e-47  2.38988905e-47
  -1.13727747e-17  6.03505329e-17 -2.35251661e-47  1.99567726e-48
  -2.73997812e-47 -1.05535565e-48 -9.78065209e-48 -1.33347025e-49
  -2.12056431e-47  1.14324369e-47  8.00195273e-48 -1.65920616e-48]
 [-2.72302003e-48  3.02072677e-02 -1.18929993e-02 -5.62896816e-02
  -1.79395018e-47  1.06495244e-01 -9.91276960e-49  3.54488176e-01
  -2.19276452e-01 -9.25276374e-49  2.58392148e-47 -4.18904098e-48
   6.76054531e-48  2.55892399e-48  1.45712703e-47 -6.47506713e-48
  -8.30150892e-48 -6.91719568e-48  1.52495351e-01 -1.44162036e-47]
 [ 1.76462247e-01  1.31722902e-01 -5.46514844e-01 -1.88256868e-01
   5.51866685e-02 -4.72056007e-01 -4.92461977e-01 -2.05824494e-01
   3.71567573e-01 -1.53037131e-01 -4.78695268e-01 -1.22301263e-01
  -5.94409231e-01 -2.45201988e-01 -4.05755349e-01  3.59430187e-04
  -1.50478403e-01  2.15931236e-03 -8.46842357e-02  3.43336109e-01]]
