[[ 2.52372890e+00 -3.56782202e+00  1.89298703e+00  2.17930216e+00
   4.73712869e+00]
 [ 3.31944906e+00  1.08285416e+00 -4.40666485e-01 -1.01507369e+00
  -1.84222279e+00]
 [ 2.41226778e+00 -1.13030251e+00 -4.97928676e-01 -1.88527796e+00
   1.37090524e+00]
 [ 1.41068244e-01  6.06554254e-01  1.40668780e+00 -1.44077715e+00
  -2.93743817e-04]
 [ 2.09308730e-01  3.20362338e+00  2.44354694e+00 -2.18777871e+00
   1.58078834e+00]
 [ 2.97387359e+00  4.31717799e-01 -1.20971036e+00 -1.88105990e+00
  -1.05594663e+00]
 [-3.80523571e+00 -2.17125955e+00  1.37980098e+00  8.79273543e-01
   2.82289572e+00]
 [-2.75631075e+00  2.50972023e+00  2.35620861e+00  7.82602922e-01
  -2.87794991e-02]
 [ 3.84786520e-01 -3.73212082e+00 -1.20345122e+00  1.62516673e+00
  -1.32451790e+00]
 [ 7.56955920e-01 -1.83018470e+00  4.15553313e+00  3.57182500e+00
  -4.19215471e+00]
 [-1.08933527e+00  4.72946977e-01 -1.36190866e+00  1.64120513e+00
   2.97782591e+00]
 [-1.44627881e+00  2.10897594e+00 -1.28635109e+00  1.94101798e+00
   9.10426849e-01]
 [-3.79570545e-01  2.69188307e+00 -1.72540268e+00  1.71932646e+00
  -2.42130137e-01]
 [-6.67793757e-01  2.51128998e+00 -1.56102884e+00  2.26848717e+00
  -8.09841233e-01]
 [ 8.21603273e-01 -3.03322309e-01  3.61064386e-02  2.45530501e+00
   7.91703898e-01]
 [-2.64863313e+00  2.78372978e+00 -6.37038790e-01 -2.59102259e+00
  -1.14108389e+00]
 [ 3.07432924e+00  1.07686255e+00 -1.87867000e+00 -1.61474345e-01
  -2.49088744e+00]
 [ 1.05007040e+00 -5.29297622e-01 -1.90842548e+00 -1.93783111e+00
   2.10144490e+00]]
[[ 7.29458967e-01 -3.39101310e-01 -2.51679781e-01 -3.02616490e+00
   1.34802207e+00  1.48066208e+00  1.74789760e-01  1.22011522e+00
   2.05150843e-01  1.07216539e+00 -2.13258064e-01  1.02577266e+00
  -3.51870653e+00 -1.35959456e+00 -3.23645331e+00 -2.13554473e+00
  -2.09341125e+00 -1.95049660e+00 -1.63050992e+00 -3.09826856e-01
  -3.46020656e+00  1.40801883e+00  2.33279262e+00 -2.61100465e+00]
 [ 3.39621034e-01 -5.75376710e-01  2.57212607e+00  2.41588634e+00
  -2.67745335e-02  1.17381942e+00  1.71847797e+00 -2.13421760e+00
  -2.37217555e+00 -5.36129565e-01  6.62712755e-02 -6.80117847e-01
  -1.72067341e+00 -2.96488094e+00 -4.41799437e-01 -4.06338918e-01
   2.05291333e+00  2.06663105e+00 -6.17142739e-01 -2.38913853e+00
   1.27647652e+00 -1.42691342e+00 -2.68843183e+00 -3.32935480e+00]
 [-2.06195707e+00 -1.51724485e-02 -2.78331065e-01 -1.74538667e+00
  -2.39140010e-01 -3.30262454e+00 -3.57812939e+00  2.21108594e+00
   2.58197900e+00  4.21183686e-02  1.51923627e+00 -2.59111374e+00
  -2.48891026e-01  9.70027576e-01  1.39363523e+00  1.69205466e+00
  -6.01637017e-01  1.79289759e+00 -2.96253762e+00 -2.55256195e-03
  -4.02414997e+00 -3.01424486e+00 -9.83267262e-01 -3.94744746e-01]
 [ 9.34401389e-02  2.08875836e+00 -2.43387638e+00  5.71475813e-01
   4.60852031e-02 -2.33393415e+00  2.28387995e-01 -1.70304256e+00
   1.18947449e+00 -3.37032917e+00 -3.56020561e-01 -2.12423590e+00
   2.29560361e-01 -2.40701846e+00  9.06065773e-01 -1.55990305e+00
  -4.65273989e-01 -3.31207518e+00  1.03028674e+00  3.95350998e-01
   1.42606880e+00  1.83151368e+00 -1.42352448e+00  2.09658741e+00]
 [ 2.67597461e-01 -2.33292819e+00 -1.81909086e+00 -4.90425862e+00
  -3.98178228e+00 -8.25030917e-01 -3.02186938e+00 -2.87160602e+00
  -5.99369799e+00  1.25755465e+00 -1.59544062e+00  2.15295111e+00
   2.72914028e+00  2.52308088e+00 -5.52039207e-02  1.06277298e+00
  -1.14572425e+00 -1.85188634e+00  1.93572478e+00  1.69143835e+00
  -1.23598962e+00 -2.74122107e+00 -2.37174010e+00  5.40362451e-01]]
