[[-1.39294699 -0.04643972 -1.23767465]
 [-1.48277626  0.40166302 -0.62592608]
 [-1.52782998  1.07026542 -0.69862709]
 [-1.64685913  1.19999161 -0.46795917]
 [-1.23372028  1.02753073 -0.50817873]
 [-2.88934625  0.9805106  -1.72799799]
 [ 3.18726471  1.18421528  2.58797392]
 [ 1.62659944  2.19641305  1.50048586]
 [ 1.92138589  1.55884179  0.09358595]
 [ 0.53035492  6.66012058  4.17080032]
 [ 4.29884095  0.93519744  0.69693213]
 [ 2.55662907  1.17794327 -1.23998789]
 [ 1.66611618 -2.93331642  0.09137671]
 [ 2.96135752 -2.39522681 -2.86867262]
 [ 5.2179157  -0.56501727  3.50086758]
 [ 0.39188508 -1.7247537  -3.08278531]
 [-3.04457166 -4.75179581  2.38767703]
 [-3.08196164 -3.22786516  6.97844675]]
[[ 1.95966666  2.39414647  0.12980325  3.17167244 -4.12918291 -1.26985905
   1.53041492 -5.518765   -2.78569303 -3.91791442  0.2840628  -1.05441106]
 [-0.38611962 -2.68472967  1.7421088  -3.80981325 -4.66558703 -2.48515607
  -6.17979117  2.75915887  1.99733395  3.63715132 -1.16604688 -3.68657718]
 [-3.55071802 -1.0071222  -6.93052548 -4.44958259  5.16561395 -4.30327529
   1.71010217  1.21192494  1.82550358 -7.06050337  1.12414845  4.40887101]]
