[[ 0.57518295 -0.41484725 -0.75575407]
 [ 0.14812417  0.06056265  0.90180603]
 [ 0.12942974 -0.03306974 -0.30676387]
 [-0.20209283  0.82150437 -0.14473797]
 [ 0.42826588  0.69614846  0.75871127]
 [ 0.95026885  1.14709098 -0.30014638]
 [-0.01286347 -0.33336239 -0.1791907 ]
 [ 0.08308681  0.21627773  0.0761359 ]
 [ 0.04938736  0.05976939 -0.14180753]
 [-0.7391413  -0.01810093  1.25934848]
 [-0.75359376  0.39714919 -0.63485824]
 [-1.02977315  0.15842179 -0.48225249]
 [-0.17344804 -0.50498674 -0.62676655]
 [-0.11628813 -1.27900186  1.03746842]
 [-1.06696935 -0.29650123  1.52913267]
 [ 0.28615569  0.23275837 -1.32288948]
 [ 0.31133032 -0.85138792 -0.48929324]
 [-0.42073022  0.42555903 -0.31426161]]
[[-4.06581118 -3.04380967  2.75079108 -8.30278062  3.90941517  6.92161713
   0.22283971  2.95416949 -3.12023871  4.13988443 -3.04370209 -5.00872218]
 [ 7.08142172 -8.387725    3.56659395 -7.3035316  -3.52490376 -3.03069826
  -6.70974126  2.98353143 -0.37433458  3.30291541  0.53224598  7.93651315]
 [ 3.57827329  3.8029809  -8.17392215 -3.61949841  4.63826756 -2.65445995
  -4.17284905  8.69475903  4.39877633  0.14648763 -2.32055077 -5.07753264]]
